%YAML:1.0
---
opencv_ml_svm:
   format: 3
   svmType: C_SVC
   kernel:
      type: LINEAR
   C: 2.6699999999999999e+00
   term_criteria: { epsilon:1.1920928955078125e-07, iterations:1000 }
   var_count: 64
   class_count: 33
   class_labels: !!opencv-matrix
      rows: 33
      cols: 1
      dt: i
      data: [ 0, 1, 2, 3, 4, 5, 6, 7, 8, 9, 10, 11, 12, 13, 14, 15, 16,
          17, 18, 19, 20, 21, 22, 23, 24, 25, 26, 27, 28, 29, 30, 31, 32 ]
   sv_total: 528
   support_vectors:
      - [ 9.65071740e-05, 6.55790209e-05, 1.02945196e-04, 1.74742992e-04,
          -1.16076699e-04, -1.75701120e-04, -5.63735994e-05,
          -1.23614926e-04, 1.10509514e-04, 9.73816350e-06,
          2.88459451e-05, 2.46159980e-05, 2.77203781e-05,
          -2.67866858e-06, -3.04846162e-05, -7.02057660e-05,
          1.20096214e-04, 6.21031813e-06, 2.34716936e-06, 3.49169241e-05,
          2.72054658e-05, 2.53182880e-05, 1.52087568e-05, 9.65344043e-06,
          -2.74544072e-05, -7.24481433e-05, -7.82456191e-05,
          -7.93827785e-05, 9.74634895e-05, 1.32650957e-05,
          6.44459724e-05, 9.43349733e-06, -1.12107882e-04,
          -8.72631972e-06, 4.78650736e-06, 5.83795627e-05,
          1.17677955e-04, 8.44586393e-05, 7.33578127e-05, 1.41555982e-04,
          -1.03448772e-04, -4.12612189e-06, -2.51904339e-06,
          2.42660053e-06, 4.48050523e-05, 3.20267791e-05, 2.32616603e-05,
          7.05198327e-05, 1.22688856e-04, 2.83511290e-05, 7.49176106e-05,
          2.93493795e-05, -1.95645066e-06, -7.18718093e-06,
          4.05540004e-06, 8.17095643e-05, 6.10261704e-05, 9.20907187e-05,
          4.73588298e-05, 3.60613703e-05, -8.49573698e-05,
          -1.19903845e-04, -5.17113949e-05, -9.68238965e-05 ]
      - [ 4.16648654e-05, 7.34028254e-06, -2.57762131e-05,
          1.93249562e-05, -8.11662630e-06, -5.23002245e-06,
          -1.13157848e-05, 1.79244507e-05, 1.63535005e-05,
          -3.59665537e-05, -4.60994452e-05, 5.12300176e-06,
          1.18221524e-05, -5.24672168e-06, 8.10896779e-07,
          1.40745833e-05, 1.70893200e-05, -2.23618608e-05,
          -1.57283030e-05, -3.22890082e-05, -2.89317832e-05,
          -4.91506489e-06, -4.44324087e-06, 6.36033747e-06,
          -3.57237514e-05, -6.98186923e-05, -3.44731307e-05,
          9.79845572e-06, 1.91026811e-05, 2.30110171e-08, 2.17566394e-05,
          2.75811999e-05, -3.86157044e-05, -2.97438910e-05,
          -2.32922466e-05, 1.97302734e-06, 1.69932719e-05,
          -6.19208595e-06, 1.81796440e-05, 2.73710430e-05,
          -2.77021099e-05, -6.81775637e-05, -1.08322811e-05,
          -1.67955170e-06, -6.61810782e-06, -2.19291051e-05,
          -8.92402022e-06, -2.20914426e-05, 3.44605178e-05,
          -6.89989902e-05, 8.76163904e-06, -6.59954312e-05,
          -6.84763836e-06, 4.70071114e-07, 3.59858086e-06,
          3.61061611e-05, 4.46183876e-05, 1.94959939e-05, 1.61779262e-05,
          -4.47649363e-05, -3.56882956e-05, -1.33662143e-05,
          -8.17606451e-06, 4.50360176e-06 ]
      - [ 1.21668701e-04, 2.58102064e-05, -4.21152399e-05,
          -1.47793675e-04, -1.81128598e-05, -2.01627972e-05,
          -3.02434873e-05, -2.18420992e-05, -3.79676158e-06,
          -3.41193263e-05, -4.40411095e-05, -5.68958458e-05,
          1.77767597e-05, -1.34760649e-06, -3.89254154e-07,
          7.52669221e-05, 8.68521820e-05, 3.39842995e-06, 1.25956046e-06,
          -5.40226119e-06, -2.86757277e-05, -1.11185127e-05,
          -2.52112604e-05, 3.28194947e-05, -3.09934949e-05,
          -1.16910696e-05, -1.04308192e-05, -1.68191855e-06,
          -1.04342100e-04, -4.50710504e-05, 3.99463424e-05,
          1.01425554e-04, -2.55630548e-05, -1.38421865e-05,
          -8.10042638e-06, -4.07117550e-05, 2.67021969e-05,
          -9.91917022e-06, -2.56320664e-06, 9.02759930e-05,
          3.80446945e-05, -5.39544344e-05, -1.06491265e-04,
          -8.42512818e-05, -2.56220392e-05, 8.18372337e-06,
          -2.84455145e-05, 1.25303195e-05, 4.96682005e-05,
          -1.18141061e-05, 3.52123243e-05, 6.75811816e-06,
          -7.40113828e-05, -8.01532951e-05, -5.36748703e-05,
          4.02112964e-05, 2.97292299e-05, -2.98610194e-05,
          6.43016174e-05, 1.24721064e-05, -3.58278121e-05,
          -2.98579243e-06, -2.60617526e-06, -8.69424184e-05 ]
      - [ 1.17519148e-05, 3.16676851e-05, 3.40200095e-05, 5.16951804e-05,
          5.08376570e-06, 3.40775227e-06, 2.03251579e-06, 8.33102331e-06,
          3.69804329e-05, -1.48533363e-04, -6.71576709e-05,
          1.52926059e-05, 1.73651424e-05, -2.01627373e-07,
          -1.04082756e-06, 1.11479596e-06, 7.22113691e-05,
          -4.88806691e-05, -6.26738183e-05, -5.56352788e-05,
          -6.22646694e-05, 1.54266381e-05, 6.43635303e-06,
          9.07691356e-06, -3.80784659e-05, -9.26210269e-05,
          -5.64616712e-05, -1.31463776e-05, -6.80232097e-06,
          7.61629644e-06, 2.04478929e-05, 5.96433019e-05,
          -3.19476094e-05, -1.50091921e-06, 4.78701111e-07,
          6.27803047e-06, 4.81633688e-05, 2.21206119e-05, 3.43752981e-05,
          1.00210702e-04, -4.19104572e-06, -9.67473607e-05,
          -6.09258968e-05, -4.98399004e-06, 4.27279301e-05,
          1.80969782e-05, 9.72023645e-06, 1.18480621e-05, 2.81654739e-05,
          -6.67686254e-06, 3.34978972e-06, -4.56542648e-06,
          -2.06836248e-05, -2.31272898e-05, -2.24115956e-05,
          2.44093535e-05, -1.78679579e-06, 1.76214610e-06,
          -1.07978021e-05, 4.43849558e-06, -8.12200199e-07,
          -5.97816688e-06, -1.14383301e-05, -2.21414775e-05 ]
      - [ 1.00994279e-04, -8.54288101e-06, -1.97562372e-06,
          -1.10364919e-04, -7.06160790e-05, -7.38065819e-06,
          -1.41537621e-05, -2.75089988e-05, 4.74793014e-05,
          3.41911482e-06, 2.82730089e-05, -1.60525360e-05,
          -5.43816677e-05, -4.31255794e-05, -3.64587795e-05,
          1.43047937e-05, 4.37352210e-05, 2.36134974e-06,
          -1.09919229e-05, -8.06625103e-05, -4.25496401e-05,
          2.68923777e-05, 3.44093934e-07, 3.53329815e-05,
          -1.39481290e-05, -1.07711421e-05, -1.34757738e-05,
          1.39975637e-05, -5.85387243e-05, 2.84304770e-06,
          3.67208304e-05, 1.95705306e-05, 4.58609466e-05, 2.47148910e-06,
          -9.95632854e-06, -1.44749822e-04, -7.10892127e-05,
          1.55007911e-05, 2.30550449e-05, 2.30190108e-05, 2.22798553e-05,
          -1.13985061e-05, -2.14428906e-06, -2.69594348e-05,
          -1.53126020e-04, -1.53289584e-05, -4.11467045e-06,
          3.14425924e-05, 4.73571999e-05, 9.13177360e-07, 3.09055395e-05,
          6.73017530e-06, -7.74436376e-06, -2.59916469e-05,
          -2.49310215e-05, -1.53948549e-05, 3.40394172e-06,
          1.14899440e-05, 4.35358525e-05, 1.33414678e-05,
          -9.51053516e-06, -1.15491130e-05, -6.68159419e-06,
          -5.30479774e-05 ]
      - [ 1.29263513e-04, 4.23308047e-05, 2.17067122e-06, 1.32008427e-05,
          1.84333330e-05, 3.98893962e-06, 8.10835786e-07,
          -4.43092104e-05, 2.00307295e-05, 3.30781877e-05,
          8.41830024e-06, -2.91158273e-07, -1.13365437e-04,
          -7.00556920e-05, -4.15156137e-05, -2.03982545e-05,
          7.20220851e-05, -4.74167828e-05, -7.66080266e-05,
          -1.13440714e-04, 6.60902951e-05, -9.98473695e-08,
          4.21088807e-05, 7.48620187e-06, -2.33580267e-05,
          -9.10764174e-06, -6.41299175e-06, -1.40416914e-05,
          -1.60589261e-05, -1.31753904e-05, -6.11333519e-07,
          6.30220602e-05, -4.42290093e-06, 1.33761000e-06,
          3.98466909e-06, -5.03794727e-05, -1.15350325e-04,
          -2.59410990e-05, 9.62470294e-05, 1.42684934e-04,
          7.84689255e-05, -5.73733303e-07, -1.90724268e-06,
          -1.02642902e-04, -1.91615996e-04, -2.00365321e-05,
          2.39435053e-06, 1.84105174e-05, -1.54952031e-05,
          9.26253324e-06, -5.80789947e-06, -7.20766820e-06,
          -8.41736401e-05, -8.78527935e-05, -3.98341399e-05,
          5.37270207e-05, 1.37532516e-06, -4.59154961e-07,
          8.03348848e-06, 3.69605696e-05, -7.93361251e-05,
          -6.63939645e-05, -2.51426554e-05, -1.01251608e-04 ]
      - [ 1.10347341e-04, 2.47726566e-05, 3.14234894e-05,
          -4.81674069e-05, -1.10768873e-04, -1.14757358e-05,
          -6.75694218e-06, -1.36898361e-05, 3.82546787e-05,
          -5.23302879e-05, 1.24910475e-05, 7.11512985e-06,
          8.48686614e-06, 2.24588547e-07, 2.44847638e-06, 3.47454420e-06,
          6.11092328e-05, -4.59578077e-05, -4.06151003e-06,
          8.38919186e-06, 2.35235966e-05, 2.11487204e-05, 5.58557394e-06,
          2.76515311e-05, -3.57155659e-05, -1.05864507e-04,
          -1.52940561e-06, 2.82032361e-05, 7.78844551e-05,
          3.37004130e-05, 4.26975275e-05, 7.98829060e-05, 1.02760196e-05,
          -1.31242050e-04, -5.86627102e-05, -3.26328191e-05,
          9.58433429e-06, 1.48336976e-05, 2.28753597e-05, 1.19864468e-04,
          -1.05454892e-05, -1.14418137e-04, -1.02284648e-05,
          -7.52381254e-07, 2.30753158e-05, 2.79443611e-05,
          1.96074452e-05, 6.27052505e-05, -2.42317419e-05,
          -3.76498501e-05, 2.67953328e-05, 9.05706474e-06,
          8.96188430e-06, -4.12126519e-06, 2.04290586e-07,
          3.80210186e-05, -5.82306020e-05, 3.19402789e-05,
          3.94755189e-05, 4.63430079e-05, 6.86490512e-06,
          -1.04300739e-06, -1.42524016e-07, -2.30550213e-05 ]
      - [ 1.12760055e-04, -2.69765974e-06, -9.42644147e-06,
          -2.31170980e-05, -5.10409263e-05, -4.24002319e-05,
          -9.02939428e-05, -7.07762047e-06, 3.03867159e-06,
          -2.22089384e-05, 1.38634787e-05, 5.21219154e-05,
          -1.45253871e-04, -1.68993691e-04, -1.11024056e-04,
          5.95689817e-05, 9.64312057e-05, -9.60779216e-05,
          -1.52304201e-04, -1.31295892e-04, 8.98414728e-05,
          6.07365064e-06, 2.50278554e-05, 9.34084601e-05,
          -4.24135760e-05, -3.60717968e-05, -3.12010488e-05,
          -1.55640319e-05, 2.19155409e-05, -1.72851378e-05,
          2.14497941e-05, 1.64322464e-05, -1.30119213e-06,
          -1.92941970e-05, -1.90892188e-05, -1.22932164e-04,
          -8.34963284e-05, -2.47993630e-05, 4.52763707e-05,
          2.19023466e-04, 5.78820664e-06, -1.41549725e-04,
          -1.87670288e-04, -2.27472774e-04, -8.48430645e-05,
          -6.91222886e-06, -2.43137001e-05, 5.90663194e-06,
          3.26168010e-05, 1.79674153e-05, 2.47179487e-05,
          -4.35099400e-06, -1.75591194e-04, -1.69392311e-04,
          -9.91561901e-05, 5.70400880e-05, 7.78357662e-06,
          -4.36953360e-06, -1.58986149e-05, 3.22119195e-05,
          -9.88438205e-06, -3.44674372e-05, -5.59806649e-05,
          -9.23875705e-05 ]
      - [ 8.10326092e-05, -9.66079642e-06, 1.41821156e-05,
          6.71169910e-05, -8.73990393e-06, -5.61944544e-05,
          -2.70504079e-05, -8.18378030e-05, 4.55259942e-05,
          -1.93502892e-05, -5.60043081e-05, -9.03959972e-06,
          -2.84021226e-05, -5.86918140e-05, -6.07043985e-05,
          -4.15092381e-06, 1.47676241e-04, 1.29800355e-05,
          -2.08789643e-07, -3.15474281e-05, -1.99798378e-04,
          -2.19966005e-05, 8.12783981e-07, 1.15122375e-05,
          -1.55632551e-05, -2.31434806e-05, -1.14876357e-05,
          -6.24372333e-05, -1.78104543e-04, -6.31598596e-06,
          3.77902143e-05, 1.30653949e-04, 1.45336780e-05, 8.76354363e-07,
          -4.36925205e-07, -6.89842273e-05, 1.73991230e-05,
          3.97164040e-05, 3.51728013e-05, 6.66654087e-05,
          -4.33750611e-05, -8.28393895e-05, -7.80358678e-05,
          -1.07209104e-04, 1.10461384e-04, -7.85368502e-06,
          9.51848051e-06, 6.23129552e-07, 6.28960843e-05, 1.81606883e-05,
          2.99671501e-05, -5.50080222e-06, -7.13546688e-05,
          -6.02674227e-05, -3.59513979e-05, 9.65452855e-05,
          1.17008203e-05, -2.80800919e-06, 3.08294730e-05,
          -1.74524139e-05, -1.90636983e-05, -1.05184893e-06,
          -1.12533655e-06, -5.39526081e-05 ]
      - [ 5.63849680e-05, 1.35574928e-05, 2.64357586e-05, 3.65653650e-05,
          3.52354218e-05, -2.00300510e-05, -4.81742291e-06,
          2.43096747e-05, -5.67666102e-05, -1.20733181e-04,
          1.36985927e-05, 3.18252423e-05, 9.67565848e-06, 2.63935840e-06,
          3.19180640e-06, 6.48245114e-05, 4.05496758e-06,
          -3.02890421e-05, -2.25231943e-05, -9.00036393e-05,
          -1.36214157e-05, 6.33867512e-06, -1.07737087e-05,
          7.42540287e-05, -2.03536019e-05, -7.12808032e-05,
          -6.74218290e-06, -1.81058367e-05, -1.65021484e-05,
          3.60464674e-06, 8.38714004e-06, 5.14145795e-05,
          -1.47627843e-05, -4.91327137e-06, -6.09818426e-06,
          8.87291571e-06, 2.82391466e-05, 2.50988760e-05, 7.22011191e-06,
          1.14813789e-04, 2.98374925e-05, -1.85785502e-05,
          -7.07411846e-06, -7.15392105e-07, 3.91265785e-05,
          1.73033095e-05, -6.28434354e-05, -7.04793420e-05,
          8.19494671e-05, -8.81749074e-08, 1.24432891e-05,
          -3.11768144e-06, -8.19025809e-05, -4.71074854e-05,
          -4.69618353e-05, 2.19750345e-05, 4.81350435e-05,
          -1.24107612e-06, -4.69822822e-07, -1.00743709e-05,
          -2.61488276e-05, -1.14321338e-05, -7.14421549e-05,
          -4.66146121e-05 ]
      - [ 8.98625585e-05, -2.47014577e-05, 7.22497716e-05,
          5.69076255e-05, -4.19121243e-05, 1.20328232e-05,
          7.62089940e-07, -1.14335802e-04, 5.23395647e-05,
          2.41925845e-05, 5.64990260e-05, 8.37099360e-05,
          -2.02918658e-04, -9.15723504e-05, -1.28338550e-04,
          3.57511926e-05, 7.45905127e-05, -8.33038357e-05,
          -9.10086455e-05, -2.37378670e-04, -1.25591596e-05,
          5.28347773e-05, 2.40439203e-05, 3.60337544e-05,
          -7.53441441e-07, -8.14751002e-06, 4.83625911e-07,
          -7.82492280e-05, -1.47720266e-06, -4.85094596e-08,
          1.50939991e-06, 2.86337963e-05, -2.69556003e-05,
          -5.57782078e-05, -5.76209823e-05, -7.53968243e-06,
          4.86035751e-05, 4.55311965e-05, 3.44788459e-05, 1.55005706e-04,
          -8.47666888e-05, -9.53576891e-05, -2.00652168e-04,
          -2.35716536e-04, 2.15889249e-05, -2.59285771e-05,
          -3.10184296e-05, 4.31227418e-05, 7.65393997e-05,
          -1.71818228e-05, 5.91209900e-05, 5.80839987e-05,
          -1.76343397e-04, -1.41832003e-04, -9.16569625e-05,
          1.03371000e-04, -1.77084701e-06, 2.12026516e-05,
          -1.00623347e-05, -4.49146501e-05, 7.61872843e-06,
          -4.21408913e-05, -1.06213811e-04, -1.34802278e-04 ]
      - [ 8.61660446e-05, -6.80921294e-05, -2.62928770e-05,
          -4.39484711e-06, -3.19141436e-05, 3.66812628e-06,
          2.43540831e-06, -3.87069158e-05, 8.95730627e-05,
          2.90832759e-05, 6.20148785e-05, -6.39238351e-05,
          -5.33102902e-05, -4.38468578e-06, 3.78318714e-06,
          -4.66376187e-05, -7.00794844e-05, -1.13263204e-05,
          -5.85799569e-07, 6.83857343e-06, -1.12222428e-04,
          5.63146459e-05, 1.07203821e-04, -6.12064032e-05,
          1.42032513e-04, 6.91303285e-07, -1.98461592e-07,
          1.38598455e-06, 6.05671667e-05, -8.66223054e-05,
          7.84841250e-05, -1.38536489e-05, -5.45202420e-05,
          -3.75079835e-05, -2.69875691e-05, -1.81897878e-04,
          -1.23374353e-04, 5.52636766e-06, 9.84591825e-05,
          2.78060586e-04, 7.10386739e-05, 2.09276345e-06, 2.00404585e-07,
          1.19194832e-08, -2.57336960e-05, -4.89161248e-05,
          -4.69424640e-06, 5.39324355e-05, 6.53775999e-07,
          -5.65155424e-05, -6.89354856e-05, 3.89020606e-05,
          1.53912133e-05, 1.91415711e-06, 1.48920963e-05, 2.56506639e-04,
          1.20719880e-04, 4.03333361e-05, 6.77419011e-05,
          -8.55894177e-05, -4.17519987e-05, -9.24982942e-06,
          -1.40645989e-05, -8.98802318e-06 ]
      - [ -3.04591114e-04, -2.24162839e-04, -2.94406127e-05,
          1.51671295e-04, -5.34190738e-04, 4.51588312e-05,
          1.87012556e-05, 5.97963735e-05, 3.72145259e-05, 5.14204294e-06,
          8.73082492e-04, 1.35590293e-04, 2.64132424e-04, 1.07967317e-04,
          1.01635646e-06, -3.14877689e-04, -1.90849110e-04,
          -2.29909521e-04, 3.34403048e-05, 1.06066655e-05,
          8.61361856e-04, 6.88403321e-04, 3.96404590e-04,
          -7.03259066e-05, 1.21834048e-04, 1.85887082e-04,
          -1.09878900e-04, -2.95382255e-04, 2.32932740e-04,
          7.67340127e-04, -7.64500510e-05, -2.53366889e-04,
          -4.24967555e-04, 6.59621583e-05, 3.74791898e-06,
          -3.69605608e-04, 4.61686022e-06, -2.40977577e-04,
          8.72779710e-05, -1.37646683e-04, 3.82640865e-05,
          -1.69472158e-04, -1.67198275e-04, -6.80193116e-05,
          -7.37673894e-04, 5.31145015e-05, -3.66243650e-04,
          6.32261217e-05, 6.06834306e-04, 2.11876162e-04,
          -8.26211326e-05, 5.18788002e-05, -9.76743104e-05,
          -5.36819389e-05, 7.60301773e-05, 4.01737139e-04,
          -2.12261566e-05, 1.74240937e-04, -1.25124507e-05,
          1.50398118e-04, 2.79635919e-04, 1.19933778e-04,
          -7.25445207e-05, -9.79138276e-05 ]
      - [ 1.05332452e-04, -6.86903650e-06, 3.16122532e-05,
          5.95772835e-05, -1.63414526e-07, 3.13230316e-06,
          1.90518017e-06, 3.26823174e-05, -1.06414973e-05,
          2.48978340e-05, 8.10158017e-05, 5.63694921e-05,
          -1.21890036e-04, -6.12314834e-05, -5.54426224e-05,
          -5.03403207e-05, 2.29608066e-08, -4.06516046e-05,
          -8.35452956e-05, -1.29994864e-04, 7.18913871e-05,
          7.39745810e-05, 4.82454016e-05, 2.54642291e-05,
          -3.02078770e-05, -1.41213604e-05, -7.27424822e-06,
          -1.60921672e-06, -3.28095666e-05, -1.77355082e-06,
          4.81368770e-05, 5.60859735e-05, -2.21584651e-05,
          -9.88234297e-06, -2.40860463e-05, -9.52413684e-05,
          -2.22900471e-05, 5.59703731e-05, 5.50415934e-05,
          1.36563482e-04, 3.51033887e-05, -1.09306720e-05,
          -1.39308395e-05, -3.11739204e-05, -5.64995535e-05,
          -1.89604361e-05, -2.08796555e-05, -1.19295930e-06,
          2.55518571e-05, -4.92228810e-06, -2.38196062e-05,
          -9.11396419e-05, 1.37891229e-05, -2.11130737e-06,
          1.55230864e-05, 1.43162892e-04, 4.31497720e-05, 4.72723914e-05,
          6.31650692e-05, -1.84729543e-05, -1.81574302e-04,
          -2.06141322e-05, -1.81625419e-05, -4.50476509e-05 ]
      - [ 1.63096920e-05, 7.96116456e-06, 2.63503061e-05,
          -5.00521528e-05, -1.72433538e-05, 4.20946526e-06,
          -6.82741984e-07, -2.24424766e-05, 1.10237295e-06,
          1.15574794e-05, 3.62279752e-05, 3.29641480e-05,
          -8.52257144e-05, -4.37979070e-05, -2.36661617e-05,
          -3.30712173e-05, -2.21989030e-05, -4.46232261e-05,
          -6.72909591e-05, -8.72118617e-05, 5.39213215e-05,
          2.63082529e-05, 2.35147345e-05, 8.64451886e-06, 1.95311059e-05,
          9.92220279e-08, 5.17867065e-08, 1.05719237e-05, 8.85002592e-05,
          2.82653309e-05, 4.25311773e-05, 2.30230289e-05,
          -3.85264730e-06, -1.63140394e-05, -2.59451153e-05,
          -2.27241078e-04, -7.66123194e-05, 5.36495754e-05,
          3.91606409e-05, 1.49315150e-04, 4.51194355e-05,
          -1.74470472e-06, -3.66682684e-07, -3.87124783e-06,
          -2.91726719e-05, -1.72297114e-05, -1.77161455e-05,
          8.32781825e-06, 1.04372930e-05, 2.69187353e-06,
          -4.58606119e-05, -6.18332706e-05, 2.33928658e-05,
          -2.55086690e-07, 1.06908901e-05, 1.03148588e-04,
          3.34817669e-05, 4.39655050e-05, 3.84226259e-05, 7.47793092e-05,
          5.70668162e-05, -2.23432980e-05, -4.68511007e-06,
          -4.18159652e-05 ]
      - [ 6.36731784e-05, 4.06711979e-06, 2.65229555e-05,
          -2.33543324e-05, -3.42786698e-05, 2.85275951e-06,
          -1.82205019e-06, -8.63373134e-05, 8.13874794e-05,
          3.73349503e-05, 9.70840993e-05, 2.53430226e-05,
          -1.39868016e-05, -1.00481645e-06, 9.76034926e-07,
          -1.08245527e-04, -4.41133380e-07, 9.57510656e-06,
          -3.96427276e-05, -2.75045713e-05, 2.37144081e-06,
          9.40828177e-05, 6.32004812e-05, 8.28786369e-07,
          -2.27763867e-05, -2.41547150e-05, -1.88754439e-05,
          -6.09139643e-05, 2.77180388e-05, -4.71754174e-05,
          6.97257128e-05, -2.85408823e-05, 3.54815966e-05,
          -6.66457663e-06, 3.34138645e-06, -9.28215959e-05,
          -9.32928306e-05, -8.40684879e-05, 1.42666118e-04,
          2.26845237e-04, 1.41400946e-04, -1.29137634e-05,
          -6.58380741e-05, -2.26756762e-04, -8.89726216e-05,
          2.26745105e-05, 2.27224382e-06, 5.41460977e-05,
          -7.50254694e-05, -1.89717048e-05, -4.04547973e-05,
          6.78516008e-05, -1.21073179e-04, -1.61277800e-04,
          -9.38759549e-05, 6.13871889e-05, 4.40767280e-06,
          -2.57616466e-05, 1.51528438e-05, 1.13213118e-05,
          -1.34300906e-04, -2.12263676e-05, -4.88794249e-05,
          -7.28681698e-05 ]
      - [ -1.57206290e-04, 5.98519036e-05, 6.83224789e-05,
          1.34898219e-04, 7.79597540e-05, -3.41221920e-07,
          3.97305485e-07, 4.74774743e-06, -9.79049855e-06,
          2.11868610e-05, 6.48788991e-05, -3.59419937e-05,
          -1.27972380e-04, -4.09635722e-05, -2.95769078e-05,
          -5.21617330e-05, 1.75248188e-05, -4.64014338e-05,
          -5.33194252e-05, -1.13262140e-04, -3.64156840e-05,
          2.68942877e-05, 1.94222084e-05, 4.77057984e-05, 2.81431348e-05,
          -4.40507574e-06, -1.56961016e-06, 4.64341247e-06,
          1.17322219e-04, 3.25037654e-05, 4.48379687e-05,
          -1.47214441e-05, 1.38973310e-05, 3.19064316e-06,
          2.47343081e-07, 2.64704177e-05, 1.15958239e-04, 4.96219036e-05,
          5.17494009e-05, -4.70702616e-05, -7.02582911e-05,
          -7.35008580e-05, -5.15133506e-05, -7.71146952e-05,
          6.91376408e-05, 4.85847340e-05, 2.71869994e-05,
          -5.83496330e-06, 3.26660047e-05, 4.44560865e-05,
          7.12225374e-05, 2.55559280e-06, -9.72451089e-05,
          -5.04354284e-05, -6.29425995e-05, 1.80293955e-05,
          8.02729301e-06, 4.77068461e-05, 4.71334824e-05, 4.66037382e-05,
          2.00207432e-05, 1.60544027e-06, -4.53294115e-06,
          -9.81269932e-06 ]
      - [ 5.51826852e-05, 3.56448945e-05, 6.03996486e-05, 1.35031252e-04,
          1.09364519e-04, 1.19848346e-05, -4.76603554e-06,
          -6.43036328e-05, 2.44557741e-05, 8.38326105e-06,
          2.11354891e-05, 2.05186025e-05, 2.48170254e-05, 1.11496843e-06,
          2.36876622e-06, 4.49905019e-05, 1.07210493e-04, 2.35306925e-06,
          2.21738992e-06, 1.41149158e-05, -1.43902098e-05,
          -4.16352123e-06, 4.80941571e-06, 3.99034579e-05,
          1.68421820e-06, -5.90220088e-06, -1.30331173e-05,
          -5.39904504e-05, -1.86215591e-04, 5.85256748e-06,
          5.11106191e-05, 9.30475217e-05, -2.02805168e-05,
          3.84042414e-06, 2.19121443e-06, 2.40823847e-05, 1.09006687e-04,
          5.23035415e-05, 3.20559629e-05, -1.04501043e-04,
          -1.06198888e-04, -2.39958208e-05, -3.70972589e-06,
          3.59000205e-06, 2.48327906e-05, 5.12104889e-05, 2.22512681e-05,
          2.01356652e-05, 3.79496996e-05, 1.78841801e-05, 6.52141389e-05,
          -3.32579257e-05, 8.10268648e-06, 2.08330744e-06,
          -5.54963094e-07, -7.02752586e-05, -6.68829671e-05,
          -2.73078126e-06, -4.48069068e-06, -1.46742877e-05,
          -5.22614246e-05, 1.19658282e-07, -8.09812718e-06,
          -2.96281487e-05 ]
      - [ -2.58575801e-05, 2.51833062e-05, 4.19354074e-05,
          6.65845291e-05, 1.87802507e-05, 2.36041296e-06, 2.44395892e-06,
          -3.15882717e-05, 1.90524825e-05, -5.66260569e-05,
          -1.39392678e-05, -1.71417776e-06, -2.06848836e-05,
          -2.81535213e-05, -3.25291585e-05, -4.39216637e-05,
          1.86257676e-05, -9.95406226e-05, -6.22883090e-05,
          -1.90877508e-05, 2.04153148e-05, 1.39577578e-05,
          -1.88282884e-05, 2.94792244e-05, -1.13933502e-05,
          -1.03352102e-06, 6.38581355e-07, 7.36511538e-06,
          5.96083883e-05, 2.14221072e-05, 2.47119169e-05, 2.83287663e-05,
          -4.06401850e-05, -6.92888643e-05, -7.06821302e-05,
          3.31609263e-05, 3.84087034e-05, 4.22476805e-05, 2.44356779e-05,
          8.60615037e-05, -2.00551341e-07, -1.13558301e-04,
          -6.79638542e-05, -2.22085255e-05, 2.59683202e-05,
          1.27876510e-05, -5.53869322e-05, -6.00560952e-06,
          5.08971389e-05, -5.04351283e-06, -2.98914165e-06,
          -6.53936013e-07, -7.10605536e-06, -4.18378040e-05,
          -1.27274790e-04, 8.35147057e-06, 2.66008265e-05,
          3.03874913e-05, 2.97173228e-05, 5.14180829e-05, 5.46332149e-06,
          1.26333433e-08, -1.21173427e-04, -3.71927636e-05 ]
      - [ -6.02713990e-05, 3.60603372e-05, 5.27218835e-05,
          8.63516252e-05, 1.52714838e-05, 1.52693633e-06,
          -2.27282897e-07, -4.50121479e-06, 2.35694097e-05,
          2.96247272e-05, 2.70106902e-05, 1.43096313e-05,
          -1.82432159e-05, -1.93416599e-05, -9.62789363e-06,
          -1.07887507e-04, 2.90429307e-06, 3.04540958e-06,
          -1.35640801e-06, -4.55370491e-06, -2.93650992e-05,
          2.71549943e-05, 2.99468957e-05, 2.39661531e-05, 3.70355883e-06,
          -1.29524801e-06, -1.42587524e-07, -8.62459710e-05,
          -6.62345847e-05, 8.32248497e-06, -1.44848087e-07,
          -7.55355723e-05, 2.41132548e-05, 2.48789638e-06,
          4.21787763e-06, 3.74633928e-05, 1.12750218e-04, 5.11627077e-05,
          5.43780989e-05, 8.72395030e-05, -7.46153000e-06,
          -2.27623036e-06, -5.62511059e-06, -1.83735085e-06,
          2.22874096e-05, 1.33417088e-05, 4.17328010e-06, 1.81002906e-05,
          -5.20710455e-06, 3.60178797e-06, 2.08424153e-05,
          2.14957381e-05, 3.01976229e-06, -1.39156475e-06,
          4.16147213e-06, 7.89656915e-05, 2.81640259e-05, 3.93621813e-05,
          3.55662705e-05, -6.95025301e-05, -1.67293460e-04,
          -1.90294522e-05, -4.22967332e-06, 7.76305740e-07 ]
      - [ 7.86182936e-05, 3.91012036e-05, 7.29895037e-05, 6.97572978e-05,
          3.15097059e-05, -4.75803972e-05, -1.01985261e-05,
          3.75377058e-05, -1.93049127e-05, -1.24086400e-05,
          1.90685241e-05, 1.72169675e-05, -1.37966381e-05,
          -8.09252742e-05, -1.34084257e-04, 1.23076708e-04,
          -7.50972977e-05, -1.17062054e-05, -3.12476841e-05,
          -2.65910312e-05, 9.60066245e-06, 1.08940585e-05,
          5.68238329e-06, 1.30820954e-05, 3.10942323e-06, 3.22037636e-07,
          -4.99557530e-07, 2.44166840e-05, 1.19361903e-04,
          4.23342644e-05, 4.59498442e-05, -6.12093402e-07,
          -6.09990411e-06, -1.33842677e-05, -1.45957574e-05,
          3.27952080e-07, 7.03263868e-05, 4.29259380e-05, 5.27855664e-05,
          1.80990799e-04, 3.77414945e-05, -1.66162441e-04,
          -8.16465181e-05, -4.40854237e-05, 4.10680914e-05,
          1.42201488e-05, -2.16031112e-05, -1.88337526e-05,
          8.16306274e-05, 1.25284387e-05, -1.07646511e-05,
          -9.35512217e-05, -4.07660809e-05, -6.88370637e-05,
          -4.02407422e-05, -1.05206542e-04, -3.63746549e-05,
          6.23265805e-05, 4.68169601e-05, 6.29628776e-05, 4.12877889e-05,
          1.41650014e-06, -2.18321429e-06, -6.02836553e-05 ]
      - [ 6.46425760e-05, 2.66207480e-05, 5.30132456e-05, 1.91221188e-05,
          2.98273917e-05, 4.82447967e-06, -9.61317346e-06,
          -4.50946100e-05, -4.58472459e-06, 2.13206240e-05,
          3.39306935e-05, 9.82498750e-06, -1.06593307e-05,
          -6.42164741e-05, -1.54540598e-04, -1.31716833e-05,
          -2.62460817e-05, -1.42153494e-05, -3.73935909e-05,
          -5.22278569e-05, 4.44851066e-05, -2.45009542e-05,
          -8.40256689e-05, 1.48249103e-06, 3.48424219e-05,
          -7.60653620e-06, 4.39089945e-06, 1.23162854e-05,
          6.89688386e-05, 2.62723697e-05, 2.00629220e-05,
          -1.03391858e-05, 8.04345618e-05, -3.37832171e-06,
          2.02640672e-06, 3.04002479e-05, 8.02673676e-05, 3.20501749e-05,
          3.88686422e-05, 2.14611682e-05, -4.59844305e-05,
          -6.41563383e-05, -6.05727691e-05, -7.15791175e-05,
          4.69390070e-05, -1.44118958e-05, -4.57704809e-05,
          3.73489165e-05, -9.15803103e-05, 2.06968925e-05,
          3.38657264e-05, 1.00498673e-05, 6.34022490e-06,
          -6.80733283e-05, -1.31559602e-04, 8.86547859e-05,
          8.04966185e-05, 5.06387187e-05, 1.43998714e-05, 1.58460498e-05,
          1.90357059e-05, 1.42663623e-07, -3.91045751e-06,
          2.23197931e-05 ]
      - [ 9.26151188e-05, 2.20226284e-05, 1.67630333e-05, 9.26004645e-07,
          -4.00736535e-05, -2.81681963e-07, 5.48003925e-07,
          5.69906442e-05, 2.62993171e-06, 1.27125586e-05, 3.04132736e-05,
          1.18734006e-05, -4.42082710e-05, -5.55319821e-05,
          -4.78900074e-05, -3.71144670e-05, -5.53637146e-05,
          -6.08925729e-05, -2.84427842e-05, -5.29561621e-05,
          5.15718166e-05, 3.37863930e-05, 8.55355393e-06, 1.68028364e-05,
          1.85401018e-06, -3.97618896e-06, -2.38752523e-06,
          -1.53891528e-06, 1.64832338e-04, 4.56150738e-05,
          4.49720537e-05, 1.89480124e-05, -6.42455825e-06,
          -7.21929109e-06, -5.54713479e-05, -2.41067261e-04,
          2.69208576e-05, 4.48500359e-05, 3.34413089e-05, 1.81214840e-04,
          -2.94571237e-06, -5.44024297e-05, -5.07263539e-05,
          -1.08619650e-04, -2.40980971e-05, -1.55640082e-05,
          2.09958353e-06, 4.87102398e-06, 5.69597760e-05, 1.55776615e-05,
          3.68284091e-05, -9.26095818e-05, 3.99556884e-05,
          7.80799155e-07, 1.05472900e-05, 1.76561793e-04, 2.89568397e-05,
          5.27395823e-05, 6.76668642e-05, 1.14202150e-04, 1.58707044e-05,
          -1.98205862e-06, -3.73948706e-06, -5.79839470e-05 ]
      - [ -1.77349270e-04, 1.55655172e-04, 1.41915283e-04,
          4.58161194e-05, -2.27521872e-04, 3.68027736e-06,
          -3.81066566e-05, 5.92532306e-05, 9.81961639e-05,
          -7.40624891e-05, 8.55202870e-06, -4.58123759e-05,
          -1.26446292e-04, 2.12395444e-05, 1.40844504e-05,
          -3.46007109e-05, 2.26154625e-05, -6.23866508e-05,
          -5.30524376e-05, 2.60313082e-05, -1.16329124e-04,
          4.65104531e-05, 1.07758759e-04, -1.21591926e-04,
          -7.79455440e-05, -1.73879060e-04, -2.03107702e-04,
          -2.94895901e-04, 3.59989936e-04, 2.48722296e-04,
          2.36954860e-04, -1.14518434e-05, 1.18992066e-04,
          1.44740388e-05, 2.11824536e-05, 9.37356454e-05, 3.80730518e-04,
          -1.31259236e-04, -1.19635333e-04, -1.70219893e-04,
          -5.37368433e-05, -7.48374659e-05, -1.21824203e-04,
          -1.37015333e-04, 7.11146931e-05, -1.91322397e-04,
          6.74273397e-05, 8.67451745e-05, -1.17333992e-04,
          4.16461007e-05, 3.23370536e-04, 1.52918466e-04, 6.79835721e-05,
          -2.50255525e-05, 1.04494220e-05, 2.81983434e-04,
          2.00922979e-04, 1.60922631e-04, 3.92696857e-05,
          -6.60336926e-04, 3.91142326e-04, 7.78701869e-05,
          -4.76583324e-07, 1.37709676e-05 ]
      - [ 6.64431209e-05, 1.07348706e-05, 6.87695092e-06,
          -3.78133882e-06, -3.80651618e-05, -2.78904064e-08,
          -1.37772395e-06, 8.34656021e-06, 2.69752109e-05,
          1.46471293e-05, 2.55976265e-05, 8.61637636e-06,
          -6.35033430e-05, -5.12848856e-05, -3.85480635e-05,
          3.49965412e-05, -2.06815766e-05, -2.56366111e-05,
          -2.79648229e-05, -9.99675740e-06, 1.65894744e-05,
          1.45289760e-05, -3.41670493e-05, -4.22469420e-05,
          -6.57874034e-06, -3.86501597e-06, 9.71248369e-07,
          4.55870486e-06, 7.62099953e-05, 2.74756749e-05, 2.94299371e-05,
          -2.09575992e-05, 1.51240456e-05, -1.44328142e-05,
          -5.10229875e-05, -2.66594252e-05, -3.70598027e-05,
          -2.68500808e-05, 5.89769297e-06, 1.19611715e-04,
          -1.19174774e-05, -5.00147544e-05, -4.00644276e-05,
          -7.47292725e-05, -9.43564191e-06, -1.96005858e-05,
          -1.07425039e-05, 3.01744531e-05, 5.35508718e-07,
          -8.96904567e-07, 6.70061854e-06, 2.13510175e-05,
          9.80942241e-06, -8.00445996e-05, -1.91508632e-04,
          7.88918842e-05, 2.64076552e-05, 3.91371395e-05, 3.54091753e-05,
          6.53781899e-05, 1.79855706e-05, 2.55620478e-07,
          -1.35712209e-04, -8.35465471e-05 ]
      - [ 1.04866158e-04, -6.48865125e-06, 1.07785090e-05,
          -1.22870206e-05, -4.08653214e-05, -2.17144188e-05,
          -9.22475283e-06, -5.12874612e-05, 9.39251477e-05,
          4.43413683e-06, -1.56421211e-05, 3.79313896e-08,
          -8.60016225e-05, -3.61274506e-05, -3.46607667e-05,
          -2.31688755e-05, 6.45213004e-05, 2.43488648e-06,
          -3.85112980e-06, -4.79571863e-05, -1.46144710e-04,
          1.40928296e-05, 1.10907704e-05, 2.71289337e-05, 9.06646437e-06,
          -1.16009387e-05, -1.37634543e-05, -3.38026766e-05,
          -8.94447003e-05, -1.56583192e-05, 3.43839783e-05,
          4.08229098e-05, 1.45534268e-05, -1.59219744e-05,
          -1.32293899e-05, -6.95804047e-05, -8.41108340e-05,
          4.77461545e-05, 5.30026409e-05, 1.16171332e-05, 8.70214899e-06,
          -2.31418244e-06, -1.42812678e-06, -2.69146822e-05,
          -9.67434971e-05, 2.36974620e-06, -6.16829539e-06,
          2.37594304e-05, 6.82065001e-05, 2.49167406e-05, 3.96801215e-06,
          1.45493968e-05, -8.42170921e-05, -3.76011667e-05,
          -5.21590264e-05, 2.97565548e-05, -5.77527317e-06,
          -2.60528623e-06, 2.34273430e-05, 2.35548396e-05,
          -8.69403375e-05, -2.30752485e-05, -2.02315405e-05,
          -3.41557716e-05 ]
      - [ 1.29582928e-04, 4.07303451e-05, 6.87640568e-05, 5.16604778e-05,
          -1.75570356e-04, -2.32555176e-05, -7.27751685e-05,
          -7.47268568e-05, 8.00489943e-05, 1.30051631e-05,
          2.90846056e-05, 3.12134944e-05, 2.26353040e-06, 1.90360959e-06,
          2.21186997e-06, -4.40267831e-05, 8.54042155e-05,
          -4.62365620e-07, 2.72323723e-06, 1.76795620e-05,
          1.00322995e-05, 6.68244093e-06, 1.02183649e-05, 1.57688719e-05,
          -5.73371726e-05, 2.41658290e-06, 9.84320286e-06,
          3.42502826e-05, 8.06170938e-05, 3.62242863e-05, 6.02502805e-05,
          3.71189381e-05, -1.57425602e-05, -5.20464710e-05,
          -4.90136990e-05, -8.07824472e-05, -9.03998261e-06,
          3.89649285e-05, 1.21270059e-05, 1.31938112e-04,
          -5.18997258e-05, -3.87532873e-06, 5.50675665e-08,
          -1.33145595e-05, -2.01517123e-05, 2.14147021e-05,
          1.10725468e-05, 1.09337838e-04, -3.08487574e-06,
          2.00378017e-05, 4.37356721e-05, 6.51601076e-05, 2.15726814e-05,
          2.15584259e-06, -1.03692116e-06, -3.02994194e-05,
          1.41259370e-05, 5.93534314e-05, 4.48166466e-05, 3.53780852e-05,
          5.05700191e-05, 3.03004663e-06, -3.31866454e-06,
          -1.40220174e-04 ]
      - [ -1.43003941e-04, 8.09881822e-05, 1.10597335e-04,
          2.08103374e-04, 6.37105259e-05, 4.28799467e-06, 1.03482125e-05,
          -1.80972402e-05, 6.14175951e-05, 3.94422241e-05,
          8.64898393e-05, 7.45341313e-05, -5.24230709e-05,
          -4.36308255e-06, 1.44903397e-05, -1.65896985e-04,
          8.54745012e-05, 9.66108109e-06, 7.50345862e-06,
          -3.86548618e-06, -4.15839131e-05, 6.10766365e-05,
          5.73089483e-06, 8.77954881e-06, 9.91545949e-06, 1.12318276e-06,
          -2.47886442e-06, -1.68718852e-05, -1.43088291e-05,
          5.15703723e-05, -3.16450496e-05, -4.93771222e-06,
          2.92358691e-05, 2.03234686e-06, -2.27026618e-07,
          6.28912312e-05, 2.23312672e-04, 1.04829080e-04, 6.64605541e-05,
          -8.27684125e-05, -1.71738124e-04, -2.52499431e-05,
          -1.52237926e-05, -2.68716522e-05, 6.43590975e-05,
          7.92328865e-05, 3.22624110e-05, 2.74679815e-06, 3.88796907e-05,
          3.97689619e-05, 5.89752635e-05, 3.42049475e-06,
          -1.04395958e-05, 2.92508253e-06, 8.75022852e-06,
          5.47771197e-05, 4.26488896e-06, -3.09986785e-06,
          4.16006733e-05, -4.85120145e-05, 2.17809265e-05,
          4.45334717e-06, 3.14335978e-07, 1.50865862e-05 ]
      - [ 5.24579009e-05, 1.95755802e-05, 2.54949555e-05, 3.75222371e-05,
          1.17863001e-05, -1.49248208e-05, -5.89984520e-05,
          -3.22740816e-05, -6.31526473e-06, -1.71909858e-06,
          8.04756837e-06, 8.02691011e-06, -1.48999643e-05,
          -2.74609502e-05, -7.99544505e-05, -8.98042126e-05,
          4.87337929e-05, -2.95439327e-06, 1.15101409e-06,
          4.68918506e-06, 2.08714005e-06, -6.35794049e-06,
          -3.26951376e-05, -3.65468040e-05, 1.43795342e-05,
          1.28293516e-06, 1.74526110e-06, 2.18010136e-05, 2.15768578e-05,
          1.40293960e-05, 1.77638049e-05, 1.98783255e-05,
          -7.14554408e-05, -1.91330837e-05, 1.46710136e-06,
          3.70813432e-05, 3.80577912e-05, 1.99449096e-05, 1.25645265e-05,
          7.01048775e-05, -4.87147699e-05, -4.47701277e-05,
          -8.12393228e-06, -9.21412266e-06, 1.36277695e-05,
          1.39056397e-07, -3.79576413e-05, 2.53414055e-05,
          -3.85310159e-06, -7.09501182e-05, 5.45335024e-06,
          8.57701980e-06, -1.39377516e-06, -1.80130610e-05,
          -5.51421508e-05, 5.58304819e-05, 6.35126125e-05,
          1.99526894e-05, 1.37497109e-05, 1.65886904e-05, 2.64897390e-05,
          3.67424582e-06, 1.77778915e-07, -3.08938288e-05 ]
      - [ 6.87361826e-05, 3.21948719e-05, 1.99812548e-05, 5.29994431e-05,
          -1.41437567e-05, 2.02510773e-06, -9.63391503e-05,
          -2.26829343e-05, 2.69901993e-05, -2.70367110e-07,
          1.49088864e-05, 1.34633037e-05, 7.67754955e-06,
          -2.20496804e-06, -3.09832940e-05, 9.53284689e-06,
          6.52582748e-05, 2.32314824e-06, -4.84334705e-05,
          -3.93848677e-05, 1.32678169e-05, 1.02696504e-06,
          1.22230324e-06, -2.14516126e-06, -7.37527387e-07,
          -1.10764908e-04, -1.72982800e-05, 1.87225191e-06,
          4.09644963e-05, 1.80342795e-05, 2.33540995e-05, 6.53044553e-05,
          3.81071004e-05, -1.16638075e-04, -5.18433553e-05,
          3.40848987e-06, 1.81207051e-05, 2.99282037e-05, 3.10351170e-05,
          1.04618412e-04, -1.78462851e-05, -3.13059209e-05,
          -3.23427776e-05, -8.98081726e-06, 2.89641434e-06,
          6.56462089e-06, 1.10103756e-05, 4.09883687e-05,
          -3.81598920e-06, -3.11221993e-05, 2.64879636e-05,
          2.82235010e-06, 6.32878118e-06, -1.05419404e-05,
          -2.57549004e-06, 6.62387029e-05, -2.03233594e-06,
          2.01132007e-05, 2.30244696e-05, 3.01822511e-05,
          -6.47376510e-06, 0., -5.99077321e-05, -9.15898563e-05 ]
      - [ 7.38886520e-05, 2.58559994e-05, 3.48044741e-05, 6.07628535e-05,
          4.78774064e-06, -3.17618506e-05, -1.00932026e-04,
          1.41711416e-05, 5.59920118e-05, 2.25492136e-06, 9.37500863e-06,
          7.50456093e-06, -3.04763435e-05, -4.69757688e-05,
          -4.45403457e-05, 1.68708175e-05, 6.31926086e-05,
          -1.21715402e-06, 1.45331953e-07, 1.01282524e-06,
          3.18576485e-06, 1.99894862e-06, -2.32015936e-05,
          -6.24688837e-05, -2.63330148e-05, -8.13317456e-07,
          2.19301751e-06, 4.40204531e-06, 5.56940067e-05, 1.74760844e-05,
          2.39137262e-05, 4.82587166e-05, 3.78495643e-05,
          -1.02525082e-04, -1.39532031e-05, 5.83154133e-06,
          3.12529228e-05, 2.89334257e-05, 2.67503619e-05, 1.00913385e-04,
          -1.80743555e-05, -3.57697463e-05, -5.94509438e-05,
          -5.22780647e-05, -2.34556428e-05, 1.36643848e-05,
          6.46728586e-06, 5.60711997e-05, -2.52594909e-05,
          -2.16328008e-05, 2.48086726e-05, 1.21039157e-05,
          8.41547899e-06, -3.28201111e-07, 3.19743572e-06,
          6.65515181e-05, 5.10432219e-05, 2.64140181e-05, 2.30900514e-05,
          3.57417885e-05, 2.17187517e-05, 1.42559747e-06,
          -3.06662696e-06, -7.22556651e-05 ]
      - [ 1.34036782e-05, 7.49411311e-06, 8.19698107e-06,
          -3.79792800e-05, -2.52916816e-05, -3.11478129e-06,
          -4.49490653e-06, -1.14215609e-05, 5.68664564e-06,
          -4.01226816e-06, -2.50484773e-05, 7.19499758e-06,
          -3.17252997e-08, -1.71489276e-08, -4.82363987e-07,
          7.04346076e-06, 2.55716986e-05, -2.81873508e-05,
          -4.38439019e-05, 3.10823134e-06, 9.68737913e-06,
          7.44703857e-06, 6.53496409e-06, 9.00784380e-06,
          -1.46025138e-06, -5.28673627e-05, -5.67541065e-05,
          5.96534028e-06, -2.82180167e-06, 7.28129407e-06,
          1.47611690e-05, 1.53197125e-05, 6.29873421e-06,
          -5.07466139e-05, -3.79077937e-05, -2.60997822e-05,
          9.22062725e-07, 5.07933055e-06, 1.53833007e-05, 2.01665371e-05,
          1.26622081e-05, -3.81141872e-05, -3.49536203e-05,
          -1.04946466e-05, -4.67626433e-06, 1.31532624e-05,
          1.30759572e-05, 1.70267549e-06, 1.77040874e-05,
          -4.13932976e-05, -9.98169435e-06, 3.90157129e-06,
          3.97334725e-06, -3.21127743e-07, 4.57920834e-07,
          1.39923995e-05, -2.23339885e-06, -2.16432704e-06,
          3.72433237e-06, -3.77007359e-06, -3.86701249e-05,
          -5.98992847e-06, -4.64783534e-06, -2.75997718e-06 ]
      - [ -1.50126571e-05, -1.40692264e-05, -4.95962850e-05,
          -2.50730591e-05, 7.98103031e-07, 1.11651270e-05,
          2.36329311e-06, 2.53509061e-05, 2.25387375e-05,
          -3.85520325e-05, -6.87618231e-05, -3.57601652e-06,
          5.54780900e-06, -4.42992950e-06, 3.97465186e-07,
          7.24552365e-06, -2.89787313e-05, -2.53204598e-05,
          -1.54681984e-05, -3.49051079e-05, -4.77621006e-06,
          -1.59860338e-05, -1.03868761e-05, 1.34689608e-05,
          -1.10968303e-05, -6.94753617e-05, -2.52209993e-05,
          2.97340757e-05, -1.70377589e-05, -1.02001704e-05,
          -2.05426977e-06, 1.10532492e-05, -9.78595472e-06,
          -3.52282186e-05, -2.36200613e-05, -8.05348373e-06,
          -1.15977073e-05, -2.19050180e-05, -3.16270416e-06,
          -6.49265075e-07, -1.60025738e-05, -6.61413724e-05,
          -1.09585490e-05, 4.09480162e-06, -1.30135877e-05,
          -2.64675200e-05, -3.24980683e-05, -1.40065958e-05,
          3.18156744e-05, -8.76732884e-05, -2.13787698e-05,
          -6.50773945e-05, -8.07061770e-06, 2.23233724e-06,
          5.91517448e-07, 1.29455238e-05, 1.65929250e-05, 3.00354282e-06,
          8.83550285e-07, -4.92970030e-05, -2.61244113e-05,
          5.75313425e-06, 4.40165604e-06, 2.14530974e-05 ]
      - [ 1.43755860e-05, 2.20905122e-06, -3.88337212e-05,
          -1.38735326e-04, -2.63804886e-05, 1.93663054e-05,
          6.40767803e-06, 4.17033843e-05, 2.02232404e-05,
          -8.30210320e-06, -4.29198153e-05, -3.73325493e-05,
          9.93388312e-07, -1.30212845e-06, -5.75697868e-07,
          1.34237262e-05, 6.81794609e-06, -5.30530087e-07,
          -2.15796490e-06, -8.25852749e-06, -2.94790480e-05,
          -3.63542495e-05, -2.75297298e-05, 4.15458780e-05,
          2.49991845e-05, 3.49217908e-06, 2.55054929e-05,
          -6.42463374e-06, -1.54855719e-04, -4.83479380e-05,
          -1.07877704e-05, 2.95396367e-05, 3.68456531e-05,
          3.67334178e-06, 6.43813280e-07, -5.76429047e-05,
          -7.00098171e-05, -4.20849319e-05, -3.10168616e-05,
          1.77090951e-05, 9.34373588e-07, -2.14908923e-05,
          -6.04475281e-05, -3.61120874e-05, -2.07553585e-05,
          -2.85400311e-05, -2.97228289e-05, -2.11608312e-06,
          -9.22895924e-06, -1.29235605e-05, -2.07916455e-05,
          6.15503666e-07, -3.29662907e-05, -4.12560112e-05,
          -3.65118176e-05, -9.36008018e-06, 3.50296045e-06,
          -2.99315943e-05, -2.66208372e-05, -4.60876909e-05,
          5.59989257e-06, 2.26256543e-05, 1.89408511e-05,
          -2.26082875e-06 ]
      - [ -1.93422238e-05, 7.56653435e-06, 6.51424853e-06,
          -3.05121057e-06, 4.23118108e-05, 6.94264018e-05,
          4.84867378e-05, 2.06530112e-05, 6.24869499e-05,
          -2.31587459e-04, -7.83547293e-05, 1.22506581e-05,
          1.01192172e-05, -1.32444757e-06, 2.76830610e-06,
          1.45691038e-05, 1.61829266e-05, -9.26150533e-05,
          -5.14632957e-05, -7.71934356e-05, -1.66139744e-05,
          -5.56193754e-06, -6.52706467e-06, -1.56055357e-05,
          -3.68869660e-05, -1.07699954e-04, -5.48323305e-06,
          4.67931168e-05, -2.80505828e-05, -1.02059721e-06,
          -8.16385909e-06, 3.11277581e-05, 1.16711062e-05,
          5.88035437e-06, -9.42623387e-07, -1.40620950e-05,
          6.45450746e-06, -6.28360567e-06, 7.60003513e-06,
          4.70220220e-05, 4.82008036e-05, -1.24087601e-04,
          -5.18178058e-05, 9.24034623e-07, 2.60115812e-05,
          3.34328724e-05, 2.11144493e-06, -3.48478147e-06,
          -2.72626812e-06, -2.63480670e-05, -5.15945321e-05,
          -5.71999135e-06, -1.04328674e-05, -2.51593156e-05,
          -2.09297705e-05, -1.31476181e-05, -3.41478226e-05,
          -3.06937873e-05, -1.17217969e-05, -8.53916663e-06,
          4.40287804e-05, 4.71923850e-05, 3.28913738e-05, 2.93973039e-06 ]
      - [ -6.19500497e-06, -1.25286861e-05, -1.28730217e-05,
          -9.13710755e-05, -1.46598350e-05, 1.30816243e-05,
          5.57778412e-06, 4.25768349e-06, 2.87995626e-05, 3.50348046e-06,
          1.61703042e-06, -7.10732093e-06, -3.33171010e-05,
          -1.80778497e-05, -1.35255414e-05, -1.13622691e-05,
          -1.96134915e-05, -1.96336782e-06, -3.60223498e-06,
          -3.64765510e-05, -3.29113427e-05, -8.72881992e-06,
          -3.57449494e-06, 5.33849125e-05, 2.36633441e-05,
          1.93112533e-06, 4.44306579e-06, -1.05568643e-06,
          -6.75450501e-05, -1.62831784e-05, -1.75975799e-06,
          3.11929080e-06, 3.21520347e-05, -4.77979938e-07,
          -2.34832146e-06, -7.26477374e-05, -6.74080948e-05,
          -1.43975831e-05, -1.29683358e-05, -1.83703014e-06,
          9.49908645e-06, -4.71415160e-06, -4.10526781e-07,
          -8.93990182e-06, -9.44528074e-05, -1.82417498e-05,
          -1.08643953e-05, 3.32995369e-05, -5.79171956e-06,
          -6.34861408e-06, -9.62943614e-06, 3.76839535e-06,
          -1.27808835e-06, -4.73217005e-06, -1.39352469e-05,
          -5.41256086e-05, 1.44635408e-06, -5.14646899e-06,
          -9.86768828e-06, -2.07063713e-05, 2.76387959e-06,
          9.36012657e-06, 6.82008249e-06, 1.80103928e-06 ]
      - [ -6.23136948e-05, -8.97098198e-06, -3.00080628e-05,
          -7.89702171e-05, 3.60623126e-05, 5.77474566e-05,
          4.36778355e-05, 2.20545571e-05, -1.85429217e-05,
          7.15836131e-06, -1.13677397e-05, -4.56692760e-05,
          -9.26034409e-05, -2.42213682e-05, -7.95795859e-06,
          5.58979536e-06, -6.56702541e-05, -2.24167943e-05,
          -2.21096798e-05, -9.72914495e-05, 7.72642750e-07,
          -2.77205381e-05, 7.04817876e-06, -2.22111521e-06,
          2.37070417e-05, 1.27533976e-05, 2.09739919e-05, 1.41262535e-05,
          -6.35350443e-05, -2.84450743e-05, -2.62977283e-05,
          1.06813477e-05, 5.56307605e-05, -3.46818615e-06,
          -7.79543370e-06, -8.07011311e-05, -1.58577895e-04,
          -2.99281273e-05, 8.24440747e-07, 1.30014269e-05,
          3.75980380e-05, 2.91071842e-06, 9.50181573e-07,
          -4.04103121e-05, -1.88173246e-04, -1.55986036e-05,
          -6.16169064e-06, 3.86698121e-05, -2.57913071e-05,
          -1.25964459e-06, -2.02922583e-05, 3.43917645e-06,
          -2.74519516e-05, -2.78341267e-05, -3.01860891e-05,
          8.81624419e-06, -1.93911296e-06, -2.53941926e-05,
          -3.04917612e-05, -3.74048832e-05, 6.03881062e-06,
          1.30259878e-06, 2.34213967e-05, -5.17025874e-05 ]
      - [ -6.14136752e-06, -4.44501393e-06, 1.41177761e-05,
          -1.54575697e-04, -4.21178338e-05, 3.99431228e-05,
          1.80469469e-05, 6.09262097e-05, 6.30282229e-05,
          -9.73541246e-05, -9.32621390e-07, 1.90294418e-06,
          -1.90165952e-06, 5.36324158e-08, -4.56892735e-07,
          1.88266713e-05, -3.67383582e-05, -5.54384787e-05,
          -6.63872379e-06, -5.08929020e-07, -7.91085495e-06,
          -1.11587433e-05, 3.43240367e-06, 5.21977745e-05,
          -3.61345633e-06, -4.71433996e-05, 7.51067419e-05,
          1.43304787e-04, 3.26801892e-05, 1.63450859e-05, 7.49752871e-06,
          3.48050162e-05, 5.70386255e-05, -1.25781124e-04,
          -9.33412448e-05, -9.39521415e-05, -3.68714427e-05,
          -1.17917170e-05, -1.38020205e-05, 3.66268650e-05,
          7.94652296e-05, -1.36531438e-04, -2.95494610e-05,
          -2.58114801e-06, -1.25885745e-05, 4.65935955e-06,
          9.33611955e-06, 1.55588259e-05, -7.51244079e-05,
          -8.15356543e-05, -1.71227675e-05, 1.29892089e-06,
          8.08234836e-06, -3.24212664e-07, -2.13240000e-07,
          -1.91378549e-05, -1.02118342e-04, 7.09333108e-06,
          1.11896843e-05, 3.09103089e-05, 7.00159726e-05, 5.22057817e-05,
          4.09407767e-05, -5.10175425e-07 ]
      - [ -1.72223226e-05, -3.54917211e-05, -8.95894482e-05,
          -1.21983794e-04, 8.59432257e-05, 1.15253395e-04,
          3.36833436e-05, 4.71702915e-05, -2.52658756e-05,
          -1.53042743e-06, -3.43030333e-05, -3.74605479e-05,
          -1.52855253e-04, -6.26794426e-05, -5.64283109e-05,
          1.66487353e-05, -4.92865620e-05, -6.26307155e-05,
          -8.51483128e-05, -1.23183898e-04, 4.20021752e-05,
          -2.15906475e-05, -1.57989671e-05, 7.41773983e-05,
          -2.14960455e-05, 1.53662750e-05, 6.69088404e-05,
          5.12783845e-05, -4.37516755e-05, -3.76569769e-05,
          -6.63314422e-05, -7.67112215e-06, 9.04739936e-05,
          -2.74668218e-05, -1.51177173e-05, -1.22699188e-04,
          -6.62175153e-05, -7.06858991e-05, -7.57579764e-05,
          8.63210080e-05, 4.82043324e-05, -9.14558259e-05,
          -9.20277525e-05, -8.84659239e-05, -4.91140308e-05,
          -3.39097423e-05, -1.45133636e-05, -8.23554183e-06,
          -2.26787979e-05, -1.52204357e-05, -7.39497773e-05,
          2.81963530e-05, -7.50207910e-05, -1.04397142e-04,
          -7.87345780e-05, -6.67606873e-05, -1.72948367e-05,
          -3.22469714e-05, -7.92474384e-05, -2.89502204e-05,
          1.08214763e-05, 7.92696374e-05, 3.24360226e-05,
          -4.86123608e-05 ]
      - [ -6.36648110e-05, -2.67686792e-05, -3.73863804e-05,
          -5.99080340e-05, 2.79537617e-05, 4.54344990e-05,
          3.60225786e-05, 4.53172561e-06, -4.77912836e-05,
          2.03817272e-05, -4.97279834e-05, -3.14484569e-05,
          -5.65452974e-05, -3.87126165e-05, -4.21327677e-05,
          -2.72243433e-05, -2.11081283e-06, -1.71835893e-06,
          -3.86534020e-06, -3.29982176e-05, -1.52971857e-04,
          -3.06090878e-05, 7.98525161e-06, 2.94420024e-05,
          2.58300661e-05, 1.08704171e-05, 1.84118508e-05,
          -1.06205407e-05, -2.02645228e-04, -1.79355193e-05,
          -1.03837272e-06, 7.52657579e-05, 1.59416901e-04,
          1.93585583e-06, 3.33778615e-07, -3.48179674e-05,
          -7.57488961e-05, -1.68732277e-05, -3.48354006e-05,
          -4.67003956e-05, -1.33924514e-05, -4.24828868e-05,
          -5.76276034e-05, -8.07854740e-05, -1.35140090e-05,
          3.11208692e-06, -3.85303974e-06, -2.51200636e-05,
          8.14426949e-06, -1.10619440e-05, -3.10168434e-05,
          2.97777819e-06, -3.84758278e-05, -3.82015278e-05,
          -2.82212404e-05, -1.38213218e-05, -3.09825591e-05,
          -1.97768768e-05, -2.56836302e-05, -4.78924958e-05,
          6.90055167e-05, 5.93975819e-05, 4.39523792e-05, 1.46858229e-05 ]
      - [ -1.78259252e-05, -2.85554188e-06, -7.12968631e-06,
          -4.10355597e-06, 7.45680882e-05, 7.49591927e-05,
          1.64364610e-05, 5.97408143e-05, -7.31797118e-05,
          -1.79037452e-04, -1.25104839e-06, -1.16428112e-07,
          -2.56815274e-05, -2.75248271e-06, -1.36039134e-05,
          2.21992577e-05, -1.71941661e-04, -4.44154939e-05,
          -7.77471942e-05, -8.63526584e-05, 2.72219004e-05,
          -3.30183866e-05, -4.35693728e-05, 6.99454540e-05,
          -3.03954894e-05, -6.94695045e-05, 2.97590941e-05,
          9.10962699e-05, -2.90949756e-05, -2.65045637e-05,
          -3.68892797e-05, -1.16712124e-06, 3.83139995e-05,
          5.13678469e-06, -6.07967922e-06, -7.03139040e-06,
          -7.85095745e-06, 5.15143074e-06, -2.84221505e-06,
          9.10513263e-05, 7.53559943e-05, -1.13744352e-06,
          -3.83038895e-07, 1.21243147e-07, -7.64660490e-06,
          6.50034281e-06, -3.03007146e-05, -3.28775859e-05,
          7.70521292e-05, -1.55158123e-05, -3.85579233e-06,
          2.22436870e-06, 1.55021517e-05, -5.34827122e-05,
          -5.50725526e-05, -4.59416151e-05, -1.62542710e-05,
          -1.12055932e-05, -1.46117009e-05, 6.18673752e-08,
          6.04396337e-05, 4.19840726e-05, -1.61995777e-05,
          -5.69685399e-05 ]
      - [ 7.10198074e-05, -6.60617079e-05, -3.73818693e-05,
          -1.14075985e-04, 1.83538170e-04, 1.75809429e-04,
          9.72032649e-05, -5.56573141e-05, 4.58569084e-05,
          3.50764421e-05, -2.95975242e-05, 1.33697165e-06,
          -2.80879409e-04, -8.41684523e-05, -8.58016356e-05,
          -7.82392090e-05, -7.90260747e-05, -7.74546788e-05,
          -3.16009719e-05, -2.44746159e-04, 1.10735964e-05,
          2.54126985e-06, -9.55173164e-06, -2.31192225e-05,
          1.52671746e-05, 3.83641927e-05, 6.74693583e-05, 5.57835410e-05,
          -1.45998172e-04, -3.93080627e-05, -3.14333374e-05,
          3.78759069e-05, 8.91405580e-05, -2.83417521e-05,
          -3.72682734e-05, -3.99728888e-05, -6.93487091e-05,
          -1.71578704e-05, -7.96455424e-05, 6.61961749e-05,
          5.35059953e-05, -2.21320333e-05, -1.87971309e-04,
          -8.62102606e-05, -1.26702071e-04, -4.73074324e-05,
          -1.47218034e-05, 4.77778849e-05, -1.21762947e-04,
          -4.29210304e-05, -5.93701152e-05, 5.12122897e-05,
          -1.85313347e-05, -4.88447949e-05, -7.14628113e-05,
          4.86738754e-05, -2.27313576e-05, -1.91153886e-05,
          -5.03939409e-05, -4.50428124e-05, 1.47045968e-04,
          8.20920759e-05, -9.08178390e-06, -6.37063431e-06 ]
      - [ -4.57564383e-05, -2.27634901e-05, -2.83770514e-05,
          -5.94408921e-05, 4.87369070e-05, 4.36702649e-05,
          2.62996909e-05, 7.30439569e-05, 1.77994752e-05,
          -5.41426516e-06, -1.11835943e-05, -3.94515955e-05,
          -2.15947384e-05, 8.96594301e-08, 2.51701863e-06,
          -2.80084369e-05, -5.56242121e-05, -6.76245281e-06,
          -8.44623628e-07, 4.01797752e-06, 1.38123442e-05,
          -9.48596153e-06, -9.96533981e-06, 2.89979871e-05,
          8.08096229e-05, 1.80206516e-05, 2.09848331e-05, 2.57188931e-05,
          -1.62378274e-05, -2.65417839e-05, -1.10861802e-05,
          -3.02686240e-05, -9.96498693e-06, -1.68364849e-07,
          -5.38144468e-06, -7.36779184e-05, -1.56676644e-04,
          -8.60420550e-06, 1.23677353e-06, 6.61289741e-05,
          2.58439704e-05, 4.65581678e-07, -3.36238742e-07,
          -1.15800606e-06, -1.48589070e-05, 4.91894207e-06,
          4.50387415e-06, 1.92383995e-05, -2.49912973e-05,
          -1.00085317e-05, -3.13363744e-05, -2.23934312e-05,
          -1.06877987e-05, -3.47494051e-07, 2.16512703e-07,
          1.75883470e-05, 2.70879482e-05, 3.26359043e-07,
          -1.39806007e-05, -1.25535837e-04, 2.07837256e-05,
          2.18241585e-05, 2.16932076e-05, 4.00455938e-05 ]
      - [ -1.11701884e-04, -4.33631030e-05, -6.20936335e-05,
          -1.39845215e-04, 7.71589694e-05, 7.36723887e-05,
          4.33426030e-05, 1.09544419e-06, -3.67874745e-05,
          -6.36493814e-06, -1.34922971e-06, 2.89378422e-05,
          -1.46613356e-05, 2.30892010e-06, 1.86722100e-05,
          -1.34459318e-04, -1.53141154e-04, -1.19536635e-05,
          7.62884383e-07, 9.62068725e-07, -1.39182048e-05,
          1.07020151e-06, -6.54713358e-06, -2.13796357e-05,
          1.49696280e-04, 3.61301645e-05, 2.69052653e-05,
          -2.60697616e-05, -8.85349655e-05, -3.36371013e-05,
          -5.39830617e-05, -1.22186657e-05, 2.74545691e-05,
          4.40892427e-06, -1.46277000e-06, -4.08225642e-05,
          -1.48115229e-04, -4.36682931e-05, -5.41892841e-05,
          -6.46542176e-05, -7.31688779e-05, -3.70434873e-06,
          -2.72005923e-06, 1.32704699e-05, -7.10425302e-05,
          -3.64545303e-05, -4.00156241e-05, -5.67147436e-05,
          -6.19209532e-05, -6.90965244e-05, -6.39941427e-05,
          -2.98366922e-05, -1.36452327e-05, 2.08894494e-06,
          1.60868842e-06, -1.11599671e-04, -6.16416655e-05,
          -3.72527356e-05, -6.21427316e-05, -7.01608442e-05,
          2.70497185e-05, 5.32910562e-05, 2.51883921e-06, 7.95244123e-05 ]
      - [ -5.29109711e-05, -1.21608891e-05, -2.37660133e-05,
          -5.60209628e-05, 4.61619456e-05, 5.16353430e-05,
          3.66149688e-05, 6.08380615e-05, -4.02182704e-05,
          4.02403941e-07, 8.68166410e-08, 4.59008334e-06,
          -9.35217613e-05, -4.71361818e-05, -1.93897104e-05,
          -2.39637411e-05, -7.59141622e-05, -2.64319915e-05,
          -4.83651238e-05, -7.30856409e-05, 2.60554934e-05,
          1.99821102e-06, -5.11897633e-06, -5.78091931e-06,
          3.33574026e-05, 2.09337522e-05, 3.26541885e-05, 2.90832868e-05,
          -5.82512221e-05, -2.75690763e-05, -9.93047706e-06,
          3.91338745e-06, 2.56783806e-05, -5.03201954e-06,
          -6.30639079e-06, -8.94989062e-05, -1.17322365e-04,
          4.35308607e-07, 1.76642357e-06, 4.90198399e-05, 2.56882504e-05,
          1.18694572e-07, -1.30496232e-06, -7.92895662e-06,
          -4.96321154e-05, -2.98101372e-06, -6.54900589e-07,
          4.74859153e-05, 6.07911352e-06, -1.97148856e-05,
          -1.75297100e-05, -5.46940100e-05, 6.21745858e-06,
          -1.44189755e-07, -7.52870221e-07, 9.36076958e-06,
          7.40699033e-06, 4.16576086e-06, 1.37735952e-07,
          -1.05849314e-04, -1.50042815e-05, 2.47497319e-05,
          3.23717213e-05, 9.62562922e-07 ]
      - [ -6.31605508e-05, -1.73352510e-05, -8.10418260e-06,
          -7.96205932e-05, 3.86927641e-05, 5.24581446e-05,
          2.92728018e-05, 2.93893154e-05, -4.00434292e-05,
          -1.08823292e-06, 1.99585452e-06, -1.95496941e-05,
          -8.36775798e-05, -2.67967353e-05, -2.08118654e-05,
          -1.84632481e-05, -5.89975207e-05, -2.39907331e-05,
          -5.04140262e-05, -8.20913556e-05, -3.54661711e-06,
          1.57939576e-06, 4.21814184e-06, 1.75513451e-05, 1.97160152e-05,
          1.38531559e-05, 1.77556940e-05, 3.14991303e-05, 1.36996541e-05,
          -2.68920098e-06, 8.62393972e-06, 6.32831006e-06,
          5.77782084e-05, -1.61254156e-05, -1.90326919e-05,
          -2.41664835e-04, -8.70732110e-05, 3.08763060e-06,
          -2.61229911e-06, 2.60366123e-05, 3.20376203e-05,
          -1.23493044e-06, 1.96893737e-07, -1.78894527e-06,
          -3.81734535e-05, -2.04479638e-05, -3.20794607e-06,
          3.15976831e-05, -4.11326755e-06, -1.11265426e-05,
          -5.09759338e-05, -1.53190631e-05, 1.88569684e-05,
          1.22328083e-06, 6.41217014e-07, 3.09253228e-05, 2.84476869e-06,
          -4.09871564e-06, 1.70030569e-06, 7.08122661e-06,
          3.61894818e-05, 1.59029569e-05, 1.14001023e-05,
          -3.50815208e-05 ]
      - [ -6.21036088e-05, -2.67147570e-05, -3.52161878e-05,
          -6.95731724e-05, 6.43131280e-05, 6.18125341e-05,
          4.27346858e-05, -4.92334493e-06, -5.35072941e-05,
          -1.97690255e-07, -3.82968210e-05, -2.60472716e-05,
          -1.84763612e-05, -2.61592209e-06, 3.63960157e-06,
          -7.83770156e-05, 2.33347419e-06, -1.53005249e-06,
          -5.14461760e-07, -1.23285499e-05, -9.34933814e-06,
          -2.50983248e-05, -5.11477119e-05, -1.04431811e-05,
          3.78280929e-05, 6.76380887e-06, 1.93180877e-05, 6.52994777e-06,
          -2.07043267e-05, -3.78087716e-05, -3.34524666e-05,
          -2.75099337e-05, 8.14820523e-05, -1.10417823e-05,
          -1.48123063e-05, -1.48339517e-04, -1.97256057e-04,
          -2.84710441e-05, 2.31981130e-06, 5.60688968e-05,
          6.64141116e-05, 5.59539512e-06, 1.33076890e-06,
          -9.02250540e-05, -4.36024493e-05, -4.67845666e-06,
          -2.98645391e-05, 4.30602267e-05, -9.23935513e-05,
          -8.93884589e-06, -7.98391466e-06, 7.78940739e-06,
          -5.11295220e-05, -5.04149175e-05, -2.73978003e-05,
          -4.10103166e-05, 2.12507548e-05, -2.12301838e-05,
          -5.59975560e-05, -7.39292736e-05, -1.13298529e-05,
          1.33918938e-05, -6.96923462e-06, -5.70930388e-05 ]
      - [ -9.88894899e-05, 4.66016360e-07, 3.33051253e-06,
          5.78135905e-06, 5.50004879e-05, 4.37715826e-05, 1.26984833e-05,
          5.82710818e-05, -5.96353584e-06, -2.17044862e-06,
          -1.84409441e-06, -3.31767478e-05, -7.78494359e-05,
          -2.78657608e-05, -1.57820850e-05, -5.80743726e-05,
          -9.14919365e-05, -2.73514179e-05, -3.38835489e-05,
          -7.78598333e-05, -6.26876645e-05, -7.80035680e-06,
          -8.63882349e-07, 4.31056906e-05, 1.43868065e-05,
          1.04424598e-05, 1.90404262e-05, 1.72434684e-05, 1.57130617e-05,
          8.83677876e-06, 1.43823218e-05, -2.94369875e-05,
          1.10288238e-04, 3.82147448e-07, -5.06561776e-07,
          -7.26145743e-07, 4.58257233e-07, 1.64473886e-06,
          -6.35207743e-06, -7.23910271e-05, -4.90767088e-05,
          -2.94582987e-05, -2.19982448e-05, -5.06053620e-05,
          -2.15374894e-05, -1.86377099e-06, -7.46710896e-07,
          -3.69167501e-05, 2.12214600e-05, -3.20531558e-06,
          1.26512953e-06, -2.13143012e-05, -5.31525620e-05,
          -2.91760807e-05, -4.23303281e-05, -4.55722184e-05,
          -5.84179725e-05, -5.61843422e-07, 9.76387128e-06,
          2.99563567e-06, 5.54418220e-05, 3.78802470e-05, 2.57972715e-06,
          2.49222685e-05 ]
      - [ 2.97517799e-05, 4.93245352e-06, 4.40094300e-06, 3.41567466e-05,
          7.29778476e-05, 4.28471394e-05, -1.34286927e-06,
          2.15728378e-05, -1.08720187e-05, 1.47218861e-06,
          -1.31043453e-06, 3.72982358e-05, 7.11766290e-07,
          2.53051439e-07, 2.72457754e-07, 1.83354223e-05, 7.39388588e-06,
          -1.49950063e-06, -9.98379619e-07, -2.38438656e-06,
          -1.54833924e-05, -3.25997244e-05, -1.47841083e-05,
          4.34695903e-06, 6.46612607e-05, 5.78921390e-06, 4.32244306e-05,
          1.64933829e-06, -2.86072667e-04, -5.33558705e-05,
          1.96995497e-05, 4.05229985e-05, 3.73537405e-05, 9.07611775e-06,
          4.21663344e-06, 1.41997828e-06, 5.00606329e-05, 1.40479160e-05,
          -4.71900285e-06, -8.73136523e-05, -1.66333321e-05,
          1.69371435e-06, -1.07044843e-06, 2.05905617e-05,
          7.95180426e-07, 7.30551392e-06, -1.91319668e-05,
          1.84519649e-05, -3.48008398e-05, -1.44667702e-05,
          -6.70971986e-06, -4.79929258e-05, -3.29154204e-07,
          -4.92889330e-06, -1.27904759e-05, -1.52789493e-04,
          -6.76775089e-05, -2.45359897e-05, -6.91677051e-05,
          -5.49738543e-05, 3.87668952e-05, 2.36335836e-05,
          2.14384763e-05, 7.43069177e-05 ]
      - [ -9.48125744e-05, 4.53965185e-06, 9.60894704e-06,
          1.05973359e-05, 6.66503474e-05, 4.75605993e-05, 2.62325011e-05,
          2.02495485e-05, -4.47403227e-06, -6.59482685e-05,
          -4.91763640e-05, 9.01737792e-07, -3.10089563e-05,
          -2.69322663e-05, -2.52890604e-05, -6.10822608e-05,
          -8.21026188e-05, -9.86527812e-05, -5.53228456e-05,
          -1.99346523e-05, 2.04519210e-07, -1.19298293e-05,
          -2.15144373e-05, 7.37791743e-06, -2.09514747e-05,
          1.43536035e-05, 2.11947045e-05, 3.90583555e-05, 1.78224091e-05,
          7.99263125e-06, 1.24084263e-05, 4.52711538e-05, 5.50958430e-05,
          -5.93187069e-05, -7.57740127e-05, -1.21985443e-06,
          -2.55306659e-05, 3.77342803e-06, -8.91685033e-07,
          1.56674178e-05, 3.98462862e-06, -1.20300727e-04,
          -3.61637940e-05, -1.73178069e-05, 3.53533369e-06,
          -3.57140095e-07, -3.33810858e-05, 2.76535102e-05,
          5.21975235e-05, -1.47840783e-05, -2.60209217e-05,
          5.34416267e-06, 6.16491320e-07, -2.94654346e-05,
          -9.80781333e-05, -5.07411460e-05, 2.18105470e-05,
          3.19934338e-06, 6.08884147e-06, 8.12944836e-06, 2.60020406e-05,
          3.34159013e-05, -8.37733605e-05, 1.55514444e-05 ]
      - [ -4.04374296e-05, 6.11974747e-06, 1.23778382e-05,
          1.06828747e-05, 8.08906989e-05, 3.64830885e-05, 1.56318838e-05,
          1.05394874e-05, -6.88565842e-06, -1.54977022e-06,
          -2.10794542e-06, -1.25014358e-05, -8.44985425e-06,
          -5.96904556e-06, -5.50452614e-06, -1.26885963e-04,
          -1.21872772e-05, -1.11115526e-06, -1.15075568e-06,
          -1.01779634e-07, -5.14639760e-06, -3.43474562e-06,
          -1.49336856e-05, 2.77763647e-05, 1.02494669e-05,
          1.08840568e-05, 1.63286459e-05, -1.45896165e-05,
          -1.30528497e-04, -7.08797688e-06, -1.15358462e-05,
          -5.66837152e-05, 6.00712192e-05, 6.83992630e-06,
          1.69587031e-06, 1.49699906e-06, 2.81429720e-06, 1.57439695e-06,
          -1.21061761e-09, 3.64892985e-05, 8.11927657e-06,
          -8.46476595e-08, -7.53234133e-07, -6.27805605e-07,
          -2.84386419e-06, 1.80611119e-06, 3.64552557e-06,
          6.15742683e-05, 1.61057324e-05, -4.61462946e-07,
          -6.47243439e-07, -6.67640961e-06, -1.10405772e-05,
          -8.37439472e-07, -1.81842150e-08, 2.11997194e-05,
          8.41885776e-06, 1.94725294e-06, 1.21160224e-06,
          -8.68176066e-05, -1.56832524e-04, 3.68580771e-07,
          -6.96192819e-06, 6.47659181e-05 ]
      - [ 1.45388558e-05, 2.72199895e-06, -7.25650864e-07,
          1.45808229e-07, 1.21644902e-04, 7.22839759e-05, 2.79350588e-05,
          4.92365180e-05, -1.40940547e-05, -8.49627486e-06,
          -1.43156956e-06, 6.31403454e-05, -1.23642667e-05,
          -5.55798761e-05, -1.22799902e-04, 4.31814115e-05,
          -1.63550649e-04, -2.41705966e-05, -2.31817467e-05,
          -3.68690562e-05, -1.99656479e-05, -2.50146459e-05,
          2.84229372e-06, 4.03292215e-05, -2.16283888e-06,
          2.02474712e-05, 2.20561396e-05, 3.52637981e-05, 1.98605085e-05,
          1.19029401e-05, 5.20036838e-06, -2.58147702e-05,
          9.85155275e-05, -7.17988485e-07, -7.37264327e-06,
          -5.97497183e-06, -1.05226882e-05, -6.69008523e-06,
          1.28103738e-06, 8.11875871e-05, 3.41827786e-06,
          -1.35409136e-04, -4.33892346e-05, -2.69407483e-05,
          -1.56338774e-05, -9.53961717e-06, -8.27940221e-06,
          -1.96267665e-05, -2.24518408e-06, -2.53899707e-05,
          -3.38518730e-05, -4.32994966e-06, 1.30629837e-06,
          -5.14595995e-05, -4.07755433e-05, -1.57041839e-04,
          -3.21989501e-05, 1.20023253e-06, 7.97895245e-06,
          1.08743352e-05, 5.39433568e-05, 3.67603425e-05, 1.65683232e-05,
          1.75224486e-05 ]
      - [ 1.56409624e-05, 3.77796323e-06, 1.12494345e-05, 6.44789407e-06,
          8.88862487e-05, 3.85623316e-05, 1.32062878e-05, 2.78036964e-06,
          -3.37273887e-05, -1.03687773e-06, -3.52184861e-06,
          8.32379828e-06, -2.40251120e-05, -4.19504322e-05,
          -1.38839663e-04, 5.45095827e-06, -1.20017088e-04,
          -1.99557689e-05, -2.86265567e-05, -2.62907870e-05,
          -8.58378917e-06, -3.65281230e-05, -6.15419631e-05,
          -1.62256183e-05, 6.16379111e-05, 1.50704191e-05,
          1.77280108e-05, 4.84655975e-05, 1.10094179e-05, 7.05489242e-07,
          5.68794167e-06, 6.85471878e-06, 4.77348622e-05, 2.71444401e-06,
          2.14259535e-06, 9.67647225e-07, 1.31038123e-05, 5.70988186e-06,
          -5.17024182e-06, -3.40554616e-05, -6.71046655e-05,
          -2.59623193e-05, -2.11428451e-05, -1.55598718e-05,
          -1.94404493e-05, -3.26022018e-05, -7.63548451e-05,
          -1.48459506e-07, -4.53454741e-05, -4.80165409e-06,
          -5.46218280e-06, 1.04894671e-05, -8.10637175e-06,
          -6.33564705e-05, -1.29596039e-04, 2.19214926e-05,
          2.71728823e-05, 4.52425456e-06, -1.95316284e-06,
          -4.67224390e-06, 3.53321157e-05, 1.57793620e-05,
          1.22129150e-05, 3.62582286e-05 ]
      - [ -1.66172904e-05, -2.29072903e-05, -2.72008165e-05,
          -9.58348028e-05, 4.23767669e-05, 6.14204982e-05,
          3.96840987e-05, 1.20937490e-04, 1.29057316e-05, 9.91713733e-09,
          -1.37894949e-05, -4.75500383e-05, -5.62880996e-05,
          -3.46693996e-05, -3.80641395e-05, -4.31243025e-05,
          -1.51974804e-04, -5.12788138e-05, -2.36829874e-05,
          -6.94626870e-05, -4.79851815e-06, 9.85707175e-06,
          1.09395978e-05, 8.46016555e-05, -2.81172324e-05,
          2.82846122e-05, 5.12902589e-05, 8.37123371e-05, 3.29023533e-05,
          2.50547873e-05, 1.06386324e-05, -3.14934514e-05,
          7.59860486e-05, -5.59311911e-06, -3.07643022e-05,
          -1.82047908e-04, -6.40531653e-05, -1.47076025e-05,
          -2.74036393e-05, 7.12164183e-05, 2.32971051e-05,
          -3.32234631e-05, -2.71410918e-05, -6.01653228e-05,
          -5.90830641e-05, -3.50418741e-05, -8.85074587e-06,
          -8.96365327e-06, 3.97355179e-05, -3.85488022e-07,
          -1.14185623e-05, -6.45815671e-05, 1.88899248e-05,
          1.61292871e-06, 1.98427500e-07, 6.23674059e-05, 8.65010952e-06,
          8.82601944e-06, 9.55024734e-06, 5.73019643e-05, 5.78444997e-05,
          7.27226798e-05, 2.62853318e-05, -5.64927286e-05 ]
      - [ -1.30912449e-04, -4.57166243e-05, -4.69719816e-05,
          -1.31697394e-04, 7.31082182e-05, 5.18850429e-05,
          2.06053555e-05, 5.93125151e-05, -5.68020441e-05,
          -6.01056445e-06, -4.74181652e-05, -2.99078984e-05,
          -4.10524590e-05, 7.42294219e-07, 1.08952927e-05,
          -5.14939202e-05, -1.20542471e-04, -3.59088904e-06,
          -3.70792895e-06, -1.75458135e-05, -8.39901986e-05,
          -3.15266880e-05, -1.79008366e-05, -1.43951447e-05,
          1.34382339e-04, 1.03341699e-05, 1.81583891e-05,
          -5.99855193e-05, -4.30566542e-05, -3.44620639e-05,
          -2.74137492e-05, 7.56107147e-06, 8.50765209e-05,
          7.40778523e-06, 4.09019412e-06, -7.62999407e-05,
          -6.45177934e-05, -4.05301726e-05, -8.43917587e-05,
          -9.55908836e-05, 3.47485657e-05, 8.23568314e-07,
          -2.91552692e-06, -1.36773633e-05, -6.30424474e-05,
          -4.75565685e-05, -3.78132827e-05, -2.58848049e-05,
          -9.04572007e-05, -1.62944580e-05, -2.76333890e-06,
          -1.21047651e-05, -5.78146637e-06, -2.83025929e-06,
          -2.87506282e-06, -5.26025469e-05, -3.57387544e-05,
          -2.38892189e-05, -6.10640345e-05, -1.80368996e-04,
          8.83819375e-05, 6.31567527e-05, 2.27202872e-05, 6.00931780e-05 ]
      - [ -8.75392470e-06, -1.14337363e-05, -9.64241190e-06,
          -5.04090276e-05, 5.05535645e-05, 6.03106637e-05,
          3.33135977e-05, 3.48030699e-05, 1.56807964e-05, 5.88697549e-06,
          -3.01584168e-06, -2.37898603e-05, -6.22571679e-05,
          -4.51252236e-05, -4.66209822e-05, -7.87029933e-07,
          -9.30453389e-05, -2.13123585e-05, -2.52389673e-05,
          -1.36099179e-05, 1.37639529e-06, -1.81860487e-05,
          -5.46701704e-05, -4.38522920e-06, -8.69581709e-06,
          2.58805176e-05, 2.94257043e-05, 5.15179127e-05, 2.69366319e-05,
          7.14126145e-06, 9.86108716e-06, 8.31783291e-06, 6.23716260e-05,
          -1.72753880e-05, -5.20152644e-05, -4.45539154e-05,
          -7.05776838e-05, -5.42192065e-05, -3.89209054e-05,
          4.83098447e-05, 3.82724420e-06, -4.71512649e-05,
          -3.73095245e-05, -5.78659237e-05, -3.35833392e-05,
          -2.44914445e-05, -9.38950325e-06, 2.64813043e-05,
          -1.05150139e-05, -1.26177456e-05, -1.49753996e-05,
          1.39755593e-05, 3.43719250e-07, -9.54546776e-05,
          -2.13324107e-04, 3.91673384e-05, 1.22764259e-05,
          3.25566725e-06, 3.56626492e-06, 2.15933051e-05, 2.78421721e-05,
          3.26218142e-05, -1.48023653e-04, -3.60819722e-05 ]
      - [ -1.45392778e-05, -2.06942514e-05, -1.56999431e-05,
          -4.98758673e-05, 5.47146470e-08, 2.98331342e-05,
          2.27441706e-05, -2.22607614e-05, 2.20239981e-05,
          1.24451735e-05, -1.18754758e-06, -4.13711268e-06,
          -8.90071897e-05, -1.61694825e-05, -1.13178121e-05,
          -4.38300194e-05, -3.46429442e-05, -1.97591521e-06,
          -1.40480267e-06, -2.92492696e-05, -1.08277542e-04,
          -7.00533019e-06, 4.33093692e-06, 1.11064701e-05,
          2.01543280e-05, 4.86136014e-06, -7.34998764e-07,
          2.87507714e-06, -8.17754117e-05, -1.01849600e-05,
          -2.84071302e-06, 4.79026903e-06, 5.62659261e-05,
          -7.01472072e-06, -5.56090390e-06, -5.39524117e-05,
          -1.08587599e-04, -1.00409636e-06, 1.52322525e-06,
          -1.26300047e-05, -1.50713947e-06, 9.89992827e-07,
          2.45107714e-07, -7.04992758e-08, -9.98357718e-05,
          1.14039349e-05, -2.60700563e-06, 3.23979839e-06,
          4.67812924e-06, -2.38798634e-06, -4.22395669e-06,
          7.22822278e-06, -6.13636148e-05, -1.73900989e-05,
          -3.85935127e-05, -1.60522359e-05, -6.40334383e-06,
          -1.80773932e-05, -1.61216194e-05, -2.03408476e-07,
          -5.02867115e-05, 8.51315053e-06, 1.91223353e-05,
          -1.06462603e-05 ]
      - [ 8.85146292e-05, 3.39654503e-06, 4.51383639e-05,
          -4.41082011e-05, -1.60921536e-05, 6.66361084e-05,
          -9.68405875e-05, -1.00456433e-04, -4.57759197e-05,
          -1.01289943e-05, -1.53621586e-05, 1.04345912e-04,
          -4.48237224e-05, 2.58919636e-06, 8.25975235e-07,
          -1.61088406e-04, -1.75006680e-05, -2.82386336e-05,
          3.53681031e-07, -1.00579937e-05, -2.34257514e-05,
          -4.74645049e-07, -1.42782092e-05, -1.12904650e-06,
          -1.52366601e-06, 6.18731938e-05, 6.76467098e-05,
          1.44353136e-04, 8.90157025e-05, 1.72333657e-05, 6.12289750e-06,
          1.68473081e-04, 1.16381059e-04, -1.09978952e-04,
          -1.31257024e-04, -4.19538555e-04, -2.01710965e-04,
          -9.05901106e-06, -2.69124339e-05, 9.57542288e-05,
          6.16381440e-05, 3.40466363e-06, 2.43592763e-06, 9.29443502e-07,
          -8.00667258e-05, 5.69702070e-06, -1.32730338e-05,
          1.60386218e-04, -9.66803709e-05, 1.44579590e-05,
          1.45011518e-05, 8.82222594e-05, 5.72546596e-05, 9.19059312e-06,
          1.35185146e-05, -8.82354288e-05, -9.10832341e-07,
          1.45628155e-05, 8.10531856e-06, 2.60274028e-05, 1.21735735e-04,
          5.88670482e-05, 3.82611724e-05, -1.18520671e-04 ]
      - [ -1.13499154e-04, 7.67302026e-06, 1.63740078e-05,
          1.29748887e-05, 1.14290910e-04, 6.60695514e-05, 1.86045945e-05,
          1.54985810e-05, -5.60712506e-05, 8.36085633e-07,
          5.92064339e-07, 9.33590400e-06, -1.17325644e-05,
          2.27936289e-06, 1.96618385e-05, -1.75027482e-04,
          -3.96158866e-05, -2.02889524e-07, -2.29257193e-06,
          -4.68144435e-06, -6.20724313e-05, -2.20980110e-05,
          -2.10170638e-05, -1.53548553e-05, 8.76906342e-05,
          2.43607374e-05, 2.47888838e-05, 2.48205070e-05,
          -6.28481284e-05, -2.41087891e-05, -3.73906914e-05,
          -3.12398333e-05, 5.27497214e-05, 2.86417571e-06,
          2.34342110e-06, 6.54708742e-07, 1.69342020e-05, 6.82817154e-06,
          -2.18746368e-06, -1.28405445e-04, -1.21787831e-04,
          -3.45512080e-06, -5.09235861e-06, -5.47988247e-06,
          -8.29154760e-06, 1.96657356e-06, 1.65437996e-06,
          6.39795189e-06, 6.04066736e-06, -8.58492604e-06,
          -1.49292637e-05, -9.20709772e-06, -1.53370856e-05,
          -3.45145764e-07, 1.91929280e-06, -5.89431911e-05,
          -9.94037255e-05, -3.56714336e-05, -3.33314347e-05,
          -9.32976618e-05, 4.39028772e-05, 4.62282005e-05,
          8.23314349e-06, 3.19435894e-05 ]
      - [ 2.32993316e-05, 2.13270042e-07, 6.10353766e-07, 2.01660282e-06,
          6.51150622e-05, 1.74409088e-05, -1.59108367e-05,
          2.13481326e-05, -3.82569524e-05, -1.86188190e-05,
          -1.06193884e-05, 1.71979573e-05, -1.29098153e-05,
          -3.23850982e-05, -8.29896089e-05, -1.14986527e-04,
          -2.15325726e-05, -3.47795299e-06, 7.45045099e-06,
          1.05593363e-05, 9.21892024e-06, -6.46321860e-06,
          -4.94278393e-05, -5.66838826e-05, 6.46361950e-05,
          1.42444896e-05, 1.56306742e-05, 2.94950278e-05, 2.44607636e-05,
          2.78936659e-06, 1.04537628e-06, 9.18697333e-06,
          -2.25974909e-05, -1.28923648e-05, 3.36289827e-06,
          1.12363455e-06, 9.07642789e-06, 3.84921350e-06,
          -6.33051343e-07, 3.12657903e-05, -9.34696509e-05,
          -3.45201333e-05, -7.65893401e-06, -7.98179644e-06,
          -1.11350610e-05, -6.25928578e-06, -3.89316665e-05,
          -8.98612370e-07, -4.62191820e-05, -6.84843035e-05,
          -1.02733447e-05, 8.57134637e-06, 2.09983091e-06,
          -1.56002279e-05, -4.94748383e-05, -9.31676914e-06,
          8.77109233e-06, 3.53457335e-06, -8.40209225e-07,
          9.73150145e-06, 7.34602072e-05, 2.37859495e-05, 3.15986690e-05,
          1.11912068e-05 ]
      - [ 2.66920397e-05, 1.23799623e-07, -1.48944991e-07,
          -2.60323191e-06, 1.49516181e-05, 5.48711032e-05,
          -8.83942848e-05, 3.58943871e-05, 2.30346068e-05,
          -1.37196139e-05, -1.57244358e-05, -1.28258807e-05,
          -2.71295885e-05, -1.19055439e-05, -6.61388913e-05,
          1.02213617e-05, 4.62798971e-06, -2.69703178e-05,
          -8.35531027e-05, -6.10965508e-05, -2.27102828e-05,
          -1.73387980e-05, -1.17137115e-05, 5.73869875e-05,
          -3.14191084e-06, -1.36834511e-04, 7.74086311e-06,
          7.48600869e-05, 1.74072866e-05, 2.19571812e-05, 1.23648088e-05,
          2.80019394e-05, 7.91304410e-05, -1.90266001e-04,
          -7.58902243e-05, -2.67917443e-07, -2.90216140e-05,
          2.23908978e-06, -3.41954433e-06, 4.96786888e-05,
          1.27734338e-05, -5.90104028e-05, -4.59294606e-05,
          -1.65583933e-05, -1.41411920e-05, -1.62132801e-05,
          1.79372619e-05, 8.62691668e-05, 4.27033956e-05,
          -5.55720690e-05, -9.69098164e-06, -1.99672395e-05,
          -1.84233577e-05, -2.98843297e-05, -2.61229907e-05,
          1.62643646e-05, 1.21201801e-05, -4.96883240e-06,
          3.49566835e-06, 2.47717962e-05, 8.62971501e-05, 6.14681339e-05,
          -9.46911387e-05, -7.50036343e-05 ]
      - [ 1.58309031e-05, 5.49515971e-06, 1.52073253e-05, 7.24895335e-06,
          5.04842574e-05, 1.77972033e-05, -1.12845031e-04,
          1.08742999e-04, 1.07263375e-04, 1.75312130e-06,
          -2.62558814e-07, -1.81014766e-05, -8.54860118e-05,
          -6.32301089e-05, -6.03773078e-05, 3.21737389e-05,
          3.35654222e-05, -1.22456424e-06, 8.23719745e-07,
          -8.90021965e-06, -2.51157835e-05, -1.73189746e-05,
          -3.74487099e-05, -1.96106794e-05, 3.22609594e-05,
          2.42981678e-05, 3.85010244e-05, 6.64386534e-05, 3.74118063e-05,
          1.11629097e-05, 8.57560372e-06, 4.04031562e-05, 2.64676673e-05,
          -1.42966950e-04, -2.65476392e-05, -2.58903151e-06,
          -1.79418221e-05, 1.45491049e-06, -4.91458559e-06,
          3.01744349e-05, 1.83739667e-05, -6.11936048e-05,
          -8.79177896e-05, -9.95219743e-05, -3.67653229e-05,
          -3.46222265e-07, 1.49844836e-05, 1.49703963e-04,
          -3.94995586e-05, -5.01010800e-05, -3.87020293e-07,
          4.17784895e-06, -3.41822692e-06, -4.64401495e-08,
          -1.50454946e-06, 8.29134569e-06, 6.20934443e-05,
          6.51888149e-06, 5.48327398e-06, 1.95835910e-05, 1.01157137e-04,
          4.89040322e-05, 1.76381600e-05, -4.01026373e-05 ]
      - [ -1.71359497e-05, -7.65030290e-06, -7.22765208e-06,
          -5.33254643e-05, -1.29008513e-05, 4.27235636e-06,
          -1.02690581e-06, 6.09629342e-06, 8.41794918e-06,
          -4.58207023e-06, -3.32554555e-05, -4.25608914e-06,
          -5.21889206e-06, 3.28547038e-08, -3.45901611e-07,
          4.55075138e-07, -5.08834319e-06, -1.96944129e-05,
          -3.51086455e-05, -4.20399772e-07, -7.65612242e-07,
          -2.56059508e-07, 6.39603854e-08, 1.17533145e-05,
          1.48644149e-05, -3.95870265e-05, -3.74256269e-05,
          1.32403839e-05, -2.25219956e-05, -1.97186091e-06,
          -1.00881471e-06, 3.24453913e-06, 9.56418899e-06,
          -3.72338509e-05, -2.89892650e-05, -2.76239625e-05,
          -1.89798066e-05, -5.06283004e-06, -4.74458193e-06,
          1.27861476e-05, 9.29642920e-06, -3.31582669e-05,
          -2.57352494e-05, -8.38585402e-06, -1.05997469e-05,
          -3.86080359e-07, 1.44814607e-07, 1.05106692e-05,
          1.52978264e-05, -4.64598197e-05, -2.60692541e-05,
          -4.27216207e-07, 4.93367793e-07, -1.52690745e-07,
          -1.99101862e-07, 1.78058053e-06, -1.39209678e-05,
          -1.16801757e-05, -1.19266142e-05, -1.56725873e-05,
          -2.41750859e-05, -4.46008016e-07, 4.17957580e-07,
          1.22315787e-05 ]
      - [ 1.94917830e-05, 1.10946748e-05, 1.11427153e-05,
          -4.17608717e-05, -2.93715839e-05, 2.53214625e-06,
          -1.02878982e-06, -1.77671136e-05, 5.52231540e-07,
          3.69949958e-05, 3.07850023e-05, -2.46449381e-05,
          -6.41884162e-06, 2.35007792e-06, -6.09844506e-07,
          -1.02406909e-06, 3.04327295e-05, 2.79066480e-05,
          1.45824888e-05, 3.12435513e-05, 3.43527463e-05, 5.71032160e-06,
          -4.27179111e-06, 1.97884856e-06, 3.33294629e-05,
          6.41779407e-05, 4.43988283e-05, -2.42413225e-05,
          -4.48239771e-05, -1.80218904e-05, 7.27176996e-07,
          -1.92466337e-06, 3.01417404e-05, 2.70557521e-05,
          2.55660780e-05, -2.18478126e-05, -3.35810837e-05,
          -2.49040977e-06, -1.03381690e-05, -7.83644191e-06,
          2.79247852e-05, 4.41951270e-05, -2.44479179e-05,
          -2.13617659e-05, 1.05235108e-06, 3.62134888e-05,
          7.46879323e-06, 1.64243775e-05, -1.98976395e-05,
          7.42900811e-05, 1.10043466e-05, 4.30709733e-05,
          -1.20761124e-05, -2.25489366e-05, -2.13698913e-05,
          -5.48960488e-05, -1.47817127e-05, -2.13355634e-05,
          -1.78374958e-05, 5.00885926e-06, 2.93004068e-05,
          9.71031204e-06, 3.02924445e-06, -2.23579791e-05 ]
      - [ -3.72614995e-05, 2.03073378e-05, 7.94973748e-05,
          2.84191719e-05, 4.07476145e-05, 1.25820170e-05, 2.39792498e-05,
          -2.62028716e-05, -9.68390577e-06, -6.75037736e-05,
          5.82979228e-05, 3.15185025e-05, 5.58154125e-06, 6.49916410e-06,
          -1.36722974e-06, -4.88616752e-06, 3.75464806e-05,
          -8.12301096e-06, 3.13201394e-06, -1.57565828e-05,
          -7.62942636e-06, 2.09020363e-05, 1.93255837e-05,
          -1.63565237e-05, 1.23051304e-05, 3.65616615e-05,
          1.69075956e-05, -1.18497219e-05, 1.45986342e-05,
          1.07793412e-05, -6.09330891e-06, -3.12290877e-06,
          3.41616287e-05, 6.29489514e-05, 2.74518225e-05, 5.57667136e-06,
          -2.20228071e-06, 3.34449942e-05, 7.58538181e-06,
          1.71583124e-05, 2.94402507e-05, -2.20647280e-06,
          -1.07733349e-05, -4.59391049e-06, 1.93498436e-05,
          7.71617852e-05, 4.96330649e-05, 3.87503351e-05,
          -2.33174960e-05, 1.19703589e-04, -1.18881808e-05,
          6.38367201e-05, -1.00439665e-05, -2.68132280e-05,
          -2.38480970e-05, -2.83933132e-05, -8.27441909e-05,
          -2.47024363e-05, -2.37548375e-05, 1.52723187e-05,
          6.46078624e-05, 1.25071520e-05, 7.89657406e-06,
          -2.89357249e-05 ]
      - [ 2.05112269e-06, 7.91923185e-07, 1.75103451e-05,
          -3.04048881e-05, -1.65461333e-05, 2.20611682e-07,
          3.56637793e-06, -2.83057580e-06, 1.20316035e-05,
          3.07669652e-05, 3.58256657e-05, -8.35182709e-06,
          -2.68250533e-05, -8.77705043e-06, -8.57715258e-06,
          -1.54441677e-05, 1.30075623e-05, 1.93753913e-05,
          6.00366775e-06, -6.68788107e-06, 1.10262717e-05,
          8.70226995e-06, 2.85357169e-06, 8.61052013e-06, 4.97881992e-05,
          4.15439426e-05, 2.77478757e-05, -6.08797291e-06,
          -3.05086469e-05, 3.24448206e-06, -1.84661360e-07,
          -1.99140504e-05, 4.42406235e-05, 1.91016061e-05,
          1.67618236e-05, -4.02618753e-05, -2.89893633e-05,
          9.23918560e-06, -1.88561751e-06, -1.24953776e-05,
          2.71504978e-05, 4.28229359e-05, 6.44164402e-06,
          -1.36493609e-05, -4.04452039e-05, 1.54742684e-05,
          3.93253549e-06, 3.13671298e-05, -7.25242717e-06,
          5.07604054e-05, 2.13777366e-06, 3.05526301e-05, 1.48060678e-06,
          -6.18090644e-06, -9.83773134e-06, -5.13054219e-05,
          -1.06419748e-05, -4.26041424e-06, -7.93807612e-06,
          1.10176316e-05, 2.78059470e-05, 2.35271773e-06, 5.18695106e-06,
          -8.87925944e-06 ]
      - [ -1.34967850e-05, 6.78922515e-06, 3.15133402e-05,
          -3.05576123e-07, 1.14363502e-05, 4.55910867e-06,
          1.04986593e-05, -6.16485841e-06, -2.27230066e-05,
          3.04046589e-05, 3.52764328e-05, -1.06473517e-05,
          -3.80755300e-05, -9.05681736e-06, -7.60068360e-06,
          -1.69063715e-05, 6.26887913e-06, 1.46524426e-05,
          -3.33553339e-06, 6.12356735e-06, 2.80967452e-05,
          2.19702724e-06, -1.52275913e-06, -1.31669879e-06,
          2.30924470e-05, 6.13435113e-05, 3.81447644e-05, 1.05023378e-06,
          -7.29493877e-06, 2.44660578e-06, -1.27306548e-05,
          -2.89840264e-05, 3.79513949e-05, 2.30389978e-05,
          1.65429774e-05, -2.50442554e-05, -3.31847077e-05,
          9.82870097e-06, 4.41725297e-06, 9.82427082e-06, 5.17473891e-05,
          6.23123851e-05, 6.19575439e-06, -2.32933071e-05,
          -4.83563490e-05, 3.16337537e-05, 1.86019042e-05,
          2.23542502e-05, -1.77626553e-05, 7.32074041e-05,
          5.49895549e-06, 5.03722476e-05, -1.37236675e-05,
          -1.45396871e-05, -1.06222815e-05, -1.93519336e-05,
          -2.52555292e-05, -1.15648327e-05, -1.19132246e-05,
          2.53520338e-05, 1.25584111e-05, -7.21402600e-08,
          3.84285613e-06, -4.96189168e-05 ]
      - [ 5.03230488e-08, 1.52389757e-05, 6.24241366e-05,
          -5.16596301e-05, -4.73113869e-05, 4.46571585e-06,
          1.79594626e-05, -7.64650213e-06, 1.79075232e-05,
          2.48829633e-06, 8.80628577e-05, -4.09498580e-06,
          -1.45307704e-05, 6.36078130e-06, 1.57519324e-07,
          -7.02786747e-06, 4.33531886e-06, 3.80513393e-06,
          2.25877229e-05, 3.42077037e-05, 6.73872200e-05, 1.56275109e-05,
          2.30412970e-05, 4.84719021e-06, -8.90302090e-07,
          3.34482102e-05, 4.45061523e-05, 3.57552125e-07, 4.61147174e-05,
          2.02800857e-05, 5.05637854e-06, 3.31396518e-06, 4.41115917e-05,
          -3.81890459e-05, -1.14115610e-05, 8.20303922e-06,
          -2.09172740e-05, 3.26305453e-05, 2.34352029e-07,
          1.13378828e-05, 5.35984254e-05, 5.30972357e-05, 7.37363825e-06,
          -1.58019725e-06, 3.12872658e-07, 6.72680471e-05,
          4.59601979e-05, 5.08010380e-05, -3.58385259e-05,
          1.94228141e-05, 8.05575655e-06, 7.35574504e-05, 4.21430959e-05,
          -5.27689826e-06, -9.23687651e-07, -1.54656536e-05,
          -1.58125476e-05, -5.28082592e-06, -4.45014621e-08,
          7.49282699e-05, 8.02611612e-05, 1.60133768e-05, 1.23588597e-05,
          5.33783066e-07 ]
      - [ 4.64023242e-06, 3.57677163e-06, 3.47101668e-05,
          -3.82632470e-06, 1.40698339e-05, 1.09606390e-06,
          3.74439333e-06, -2.36265241e-05, -3.00571082e-05,
          3.83132901e-05, 5.30070720e-05, -1.84601759e-05,
          -4.23683996e-05, -1.04347364e-05, -1.61526514e-05,
          -1.56127535e-05, 1.57658214e-05, 1.77940710e-05,
          1.59840101e-06, 1.33208241e-05, 2.73841033e-05, 8.47624415e-06,
          7.13370582e-06, -1.68782208e-05, 2.96766684e-05,
          7.31180917e-05, 4.06534564e-05, -4.70781697e-06,
          6.59187526e-06, 1.80687516e-06, -9.87210024e-06,
          -3.69205700e-05, 5.23746094e-05, 2.83111367e-05,
          2.32010207e-05, -1.53005385e-05, -1.60210984e-05,
          1.21167741e-05, -1.29742339e-05, 1.04382025e-06,
          4.14355163e-05, 5.56574632e-05, -9.59077715e-06,
          -2.81998618e-05, -6.03948138e-06, 3.26269619e-05,
          2.14688189e-05, 5.29042109e-06, -1.19817305e-05,
          9.20839811e-05, 3.16625983e-06, 5.80682026e-05,
          -8.87280385e-06, -2.25218209e-05, -1.80892021e-05,
          -4.12941808e-05, -2.81642042e-05, -1.11408126e-05,
          -1.54603586e-05, 3.46133456e-05, 3.72853428e-05,
          7.98169276e-06, 3.31601473e-06, -3.05573121e-05 ]
      - [ -2.04934295e-05, 1.57692068e-06, 3.70865855e-05,
          2.14775127e-06, 1.28698484e-05, -1.43666580e-06,
          9.00273790e-06, -3.08415256e-05, -1.22499341e-05,
          3.79510493e-05, 4.00729150e-05, -1.12915122e-05,
          -2.98708746e-05, -1.02269096e-05, -1.23886721e-05,
          -1.40800130e-05, 3.14366225e-05, 3.17739068e-05,
          1.59679348e-05, 1.53809233e-05, -2.57676784e-05,
          8.64458889e-06, 1.19822680e-05, 1.50086998e-06, 5.35555300e-05,
          7.49302853e-05, 3.55186385e-05, -2.54594142e-05,
          -3.93746777e-05, 1.00303650e-05, 2.84034923e-06,
          2.91126253e-06, 5.26092663e-05, 3.55113625e-05, 2.74217182e-05,
          -1.12769030e-05, -3.50757296e-06, 2.29144916e-05,
          9.86531859e-07, -1.76819613e-05, 2.63399579e-05,
          6.07095899e-05, -5.02511011e-06, -2.33557948e-05,
          4.16936494e-08, 4.22795565e-05, 2.30909918e-05, 1.84193159e-05,
          -1.96277142e-05, 8.25310708e-05, 9.62489594e-06,
          2.74225349e-05, -5.32901959e-06, -1.64139183e-05,
          -1.01015212e-05, -1.82081985e-05, -2.66382976e-05,
          -8.91890795e-06, -1.26318591e-05, 2.57766205e-05,
          4.91223727e-05, 1.01553505e-05, 9.21893115e-06,
          -3.74362435e-06 ]
      - [ -2.20103193e-05, 1.32379500e-05, 4.94003361e-05,
          2.53969811e-05, 2.07580379e-05, 6.98640224e-06, 1.55208363e-05,
          -1.62036067e-05, -4.94951200e-05, -5.62166133e-05,
          6.27219997e-05, 2.48200322e-05, -2.79662618e-06,
          5.42068119e-06, -1.61322112e-06, -1.24056862e-06,
          -2.05123215e-05, 6.66851292e-06, -1.61457399e-06,
          -1.47272140e-05, 2.66145580e-05, 1.39964441e-05,
          8.20911828e-06, 7.53711959e-07, 1.03279979e-06, 1.39478516e-05,
          4.06804684e-05, 9.15313194e-06, -1.09388066e-06,
          1.16352760e-06, -6.50620677e-06, -2.69701627e-06,
          5.16902583e-05, 3.82365361e-05, 1.63863260e-05,
          -1.01549904e-05, -4.87931266e-06, 1.16370265e-05,
          -2.65219819e-06, 9.07187496e-06, 3.44209438e-05,
          4.45500918e-05, 5.38943141e-07, -1.74712000e-06,
          6.61617833e-06, 4.16450821e-05, 8.05482796e-06,
          -4.55030640e-05, 1.36504980e-06, 7.77331152e-05,
          3.86900729e-06, 4.85510500e-05, -3.03926281e-05,
          -2.28534882e-05, -1.88458671e-05, -4.77350295e-05,
          -4.62196258e-05, -1.32433461e-05, -1.58745424e-05,
          1.74297365e-05, 2.22712206e-05, 7.05455341e-06,
          -6.50187349e-06, -4.43399949e-05 ]
      - [ -2.96777816e-05, -2.43536851e-06, 4.48340834e-05,
          6.88870614e-06, -1.51307438e-06, -2.60580720e-07,
          9.70672772e-06, -8.75168553e-06, -2.20377660e-05,
          5.05298194e-05, 6.04715678e-05, -1.52387383e-05,
          -5.11108228e-05, -5.80473215e-06, -1.71148131e-05,
          -2.18507103e-05, -1.54157306e-07, 9.62242757e-06,
          1.00096504e-05, 5.85815678e-06, 1.46451493e-05, 1.90103056e-05,
          -8.81255062e-07, -2.09899008e-05, 2.85858114e-05,
          7.58029928e-05, 5.05883036e-05, -3.18330276e-05,
          -2.87964031e-05, -9.60509894e-08, -1.04601540e-05,
          -3.46834822e-05, 4.67023383e-05, 1.99975148e-05,
          9.39153779e-06, -9.63061120e-06, 1.96410133e-06,
          2.17768720e-05, -1.03229995e-05, -4.77416324e-06,
          2.15550390e-05, 6.54580581e-05, -6.94581740e-06,
          -1.99255264e-05, -2.30079786e-06, 2.05901106e-05,
          1.53777801e-05, 1.45560916e-05, -3.03456127e-05,
          7.76393426e-05, 9.37172172e-06, 5.51071826e-05,
          -1.74431552e-05, -1.39294316e-05, -1.09931880e-05,
          -2.81479661e-05, -3.46350535e-05, -1.16085366e-05,
          -1.02843233e-05, 2.89112832e-05, 4.52742315e-05,
          -1.30745393e-05, -1.53964193e-05, -4.11617912e-05 ]
      - [ -3.02633671e-05, -7.25856171e-06, 1.97992595e-05,
          -1.57094255e-05, 1.69857849e-05, 5.13950408e-06,
          1.08946115e-05, -1.19338551e-06, 2.03462309e-06,
          3.30102921e-05, 3.60453560e-05, -1.81101368e-05,
          -1.64244884e-05, 4.18444733e-06, 1.10698792e-07,
          -1.59379397e-05, -1.33753401e-05, 1.93530650e-05,
          1.18977432e-05, 3.09839197e-05, 2.69661741e-05,
          -1.27837814e-06, 5.76984985e-06, -5.44188242e-06,
          5.49567958e-05, 6.39126156e-05, 3.10310170e-05, 1.15326827e-06,
          -9.26224220e-06, -6.97128417e-06, -1.28841602e-05,
          -3.99889504e-05, 1.29618948e-05, 2.02989304e-05,
          1.40341526e-05, -3.90191817e-05, -6.06748472e-05,
          1.74085762e-05, -1.70530859e-06, 1.44653950e-05,
          5.29490244e-05, 6.11403375e-05, 6.74484363e-06,
          -6.64180334e-07, 1.21794692e-05, 3.04320765e-05,
          2.07326066e-05, 2.00298437e-05, -2.25657295e-05,
          6.67724235e-05, -4.99295220e-06, 5.78663239e-05,
          1.70026522e-06, -4.92189201e-07, -3.15698969e-07,
          -8.82555014e-07, 2.21920391e-06, -6.71327143e-06,
          -1.09080647e-05, -1.13413998e-05, 4.89637569e-06,
          6.69526116e-06, 5.69566146e-06, -9.54293500e-06 ]
      - [ -4.80998060e-05, -3.64888365e-06, 2.41715425e-05,
          -2.90184903e-06, 8.69712403e-06, 4.72361171e-06,
          9.70695692e-06, 2.20693505e-06, -1.51424611e-05,
          2.91150172e-05, 5.02323892e-05, -4.63104061e-06,
          -5.34848141e-06, 3.79734001e-06, -1.38303346e-06,
          -2.20511411e-05, -2.51117854e-05, 1.34905995e-05,
          1.22419433e-05, 3.20874824e-05, 3.33122443e-05, 1.46740322e-05,
          6.80550647e-06, -3.16521920e-07, 3.82728285e-05,
          5.97865001e-05, 2.82772580e-05, -9.79856122e-06,
          -4.13993075e-06, 3.65518019e-07, -1.01451424e-05,
          -2.76475366e-05, 3.51548842e-05, 2.44384210e-05,
          1.72867731e-05, -7.05172715e-06, -2.76194187e-05,
          1.05709605e-05, -1.11962572e-05, -1.56805272e-05,
          -8.95297035e-07, 5.61216075e-05, 4.61927584e-06,
          -9.94007951e-06, -3.17454919e-07, 2.80428521e-05,
          1.30363087e-05, 1.37245215e-05, -2.11832794e-05,
          5.54395556e-05, 2.83704571e-06, 6.80739686e-05, 5.97908411e-06,
          -1.72961848e-07, -4.68241552e-07, -2.66394345e-05,
          -6.49975918e-05, -1.32910263e-05, -1.12174876e-05,
          3.44756627e-05, 3.60760932e-05, 8.23668961e-06, 5.76308867e-06,
          2.62178474e-07 ]
      - [ -3.20034414e-05, 7.49164155e-06, 3.79662306e-05,
          8.81932863e-07, 2.14412685e-05, 6.68836628e-06, 1.26469022e-05,
          1.92941252e-06, -2.60578672e-05, 3.88250737e-05,
          6.47818233e-05, -2.61158812e-06, -4.67156715e-05,
          -8.70187978e-06, -1.26018040e-05, -2.05886354e-05,
          -1.05025019e-05, 1.23889513e-05, -5.93394043e-06,
          2.96024245e-06, 3.11339791e-05, 1.49388479e-05, 8.60979435e-06,
          3.20276581e-06, 2.30115402e-05, 6.96961288e-05, 3.21640873e-05,
          -5.67088409e-06, -1.69485829e-05, -6.43199598e-07,
          -8.32821024e-06, -1.60900763e-05, 3.24923785e-05,
          2.45932624e-05, 1.39653475e-05, -4.59009643e-05,
          -3.39359576e-05, 2.62888152e-05, 3.76052822e-06,
          1.62309461e-05, 6.13690572e-05, 6.73587056e-05, 4.27692021e-06,
          -7.54575922e-06, -7.55898895e-07, 2.85740316e-05,
          2.28029385e-05, 3.90518726e-05, -8.19821253e-06,
          7.55630681e-05, 9.40146947e-06, 5.35309955e-05, 5.11899134e-06,
          -4.97951078e-07, -4.26563219e-07, -1.07086100e-06,
          -2.21845994e-06, -2.40361800e-07, -6.37747632e-07,
          -3.70699513e-06, -1.28951488e-05, 7.21160131e-06,
          4.74197623e-06, -1.97752415e-05 ]
      - [ -1.30271801e-05, -1.60650154e-06, 2.62628600e-05,
          -1.50543992e-05, 1.33913618e-05, 4.36553819e-06,
          8.76326521e-06, -1.81403611e-05, -2.37515051e-05,
          3.40281949e-05, 4.71349595e-05, 1.34248094e-05,
          -3.14253521e-05, -8.33012655e-06, -6.96518237e-06,
          -1.27693729e-05, -2.00220329e-05, 7.26076678e-06,
          -5.47971649e-06, -1.13287742e-05, 3.12516313e-05,
          1.36183335e-05, 6.96061579e-06, 2.52919608e-06, 2.79058040e-05,
          5.55866536e-05, 3.00949850e-05, 9.63455022e-06, 1.75677105e-05,
          9.97889401e-06, 1.68073399e-07, -1.69843242e-05,
          3.87892251e-05, 2.03501004e-05, 1.10348547e-05,
          -5.35601976e-05, -2.10098078e-05, 2.06671721e-05,
          4.12551844e-06, 2.51886121e-07, 4.51609376e-05, 5.29990357e-05,
          5.77517858e-06, -1.35332277e-06, 2.70280680e-06,
          2.76815317e-05, 1.52321709e-05, 2.15729942e-05, 6.33813499e-07,
          6.17139376e-05, 3.38488553e-06, 4.41928605e-05, 9.50872527e-06,
          -1.43323075e-06, -8.26900816e-07, -2.71854606e-06,
          -5.61451816e-06, -5.21081006e-07, 4.62911458e-07,
          5.06965043e-05, 3.67236535e-05, 5.09600159e-06, 5.68429959e-06,
          -2.19272206e-05 ]
      - [ -4.12811460e-05, -2.33135370e-06, 2.54883489e-05,
          -8.39543918e-06, 5.32713466e-06, 3.90814103e-06,
          8.64857611e-06, -2.18587465e-05, -6.18205240e-06,
          2.86260401e-05, 3.84406048e-05, 5.56615396e-06,
          -1.04565843e-05, 2.13798785e-06, -4.95901361e-07,
          -2.52312511e-05, -8.21278445e-06, 2.33136670e-05,
          5.85491580e-06, 1.99354090e-05, 1.59402734e-05, 5.06702918e-06,
          1.52083260e-06, -1.77819948e-05, 4.47264174e-05,
          5.68915384e-05, 2.85653041e-05, -8.12937833e-06,
          1.88141655e-06, -4.35987522e-06, -9.13171334e-06,
          -3.55328048e-05, 4.27622217e-05, 2.32056664e-05,
          1.76852191e-05, -9.95904247e-06, -4.20404758e-05,
          5.71006353e-07, 3.13866940e-06, 4.02150135e-06, 3.98902266e-05,
          5.62605019e-05, 3.64054085e-06, -2.24765736e-05,
          -1.43567622e-05, 3.28845636e-05, 1.42458648e-05,
          1.77547408e-05, -3.88160952e-05, 5.95032761e-05,
          1.59333058e-06, 5.28480086e-05, -7.24690835e-06,
          -1.31733568e-05, -9.51422771e-06, -2.37690510e-05,
          -1.67284688e-05, -1.60893032e-05, -1.15825651e-05,
          1.55766211e-05, 1.14952365e-06, 8.02155569e-07, 3.50884818e-07,
          -2.22737872e-05 ]
      - [ -4.17394585e-05, 7.63005119e-06, 3.00423890e-05,
          1.79147737e-05, 1.84624114e-05, 3.30851617e-06, 7.13480358e-06,
          -6.64155505e-06, -1.46871653e-05, 2.55809991e-05,
          3.76571697e-05, 4.08331346e-07, -3.22361921e-05,
          -6.82181690e-06, -1.14813110e-05, -3.23653549e-05,
          -2.15643704e-05, 7.67542224e-06, -1.51951053e-06,
          -5.95700067e-06, 1.35029313e-05, 8.73870158e-06,
          5.45932016e-06, 3.16622106e-07, 3.23090135e-05, 4.65061967e-05,
          2.38839020e-05, 6.88344414e-07, 1.39416661e-05, 6.92960566e-06,
          8.21843514e-07, -2.79146407e-05, 4.43527206e-05,
          1.95837201e-05, 1.53131678e-05, 5.31832529e-06, 1.20302375e-05,
          1.76053400e-05, 2.87146167e-06, -3.30857583e-05,
          -6.23052074e-06, 3.60250415e-05, -3.58021339e-06,
          -1.62229298e-05, 3.60398349e-06, 2.73340283e-05,
          1.48125246e-05, 9.87650424e-07, -1.27686935e-05,
          5.33436105e-05, 9.77161199e-06, 3.87730761e-05,
          -1.49213483e-05, -9.17877969e-06, -1.39782751e-05,
          -3.40737934e-05, -3.82746402e-05, -1.66522443e-06,
          4.09930948e-07, 3.67396133e-05, 3.12741613e-05, 5.88583544e-06,
          4.01555872e-06, -1.10634783e-05 ]
      - [ 4.36108394e-06, 8.59887496e-06, 3.39766993e-05, 1.08807571e-05,
          1.97329045e-05, 4.05407081e-06, 6.82528389e-06,
          -9.81068570e-06, 1.26484083e-05, 2.65299313e-05,
          4.55507361e-05, 5.09944630e-06, -6.78043591e-07,
          3.07253981e-06, 2.73210699e-08, -2.41998691e-06,
          1.92464322e-05, 1.75447731e-05, 1.20478599e-05, 2.08938418e-05,
          2.34678537e-05, 4.94448750e-06, 8.35022456e-06,
          -6.92016420e-06, 3.44358923e-05, 5.07972727e-05,
          2.06981167e-05, -2.08702349e-05, -5.10264290e-05,
          -6.25826851e-06, 1.74972843e-06, 2.51769893e-06,
          1.83453831e-05, 2.50209287e-05, 1.52365155e-05, 5.67425741e-06,
          9.64450373e-06, 1.97245445e-05, -1.34921561e-06,
          -5.35367290e-05, -1.33612612e-05, 5.11768776e-05,
